~o
<STREAMINFO> 1 39
<VECSIZE> 39<NULLD><MFCC_E_D_A_Z><DIAGC>
~s "silst"
<NUMMIXES> 6
<MIXTURE> 1 2.076933e-01
<MEAN> 39
 -4.399388e+00 -1.691857e+00 4.033668e+00 5.614524e+00 4.607878e+00 6.623537e+00 3.426039e+00 4.986049e+00 2.652740e+00 3.986929e+00 3.111842e+00 1.298411e+00 2.146049e-01 -2.284384e+00 -1.180074e+00 -9.551547e-01 8.772611e-01 9.651862e-01 1.820318e+00 2.302973e+00 2.633339e+00 1.820070e+00 1.621435e+00 6.965541e-01 1.462528e-01 -9.791501e-02 5.049184e-01 5.812591e-01 -1.278240e-01 -3.706032e-01 -4.021282e-01 -6.035562e-01 -4.753045e-01 -4.582695e-01 -2.958646e-01 -4.632018e-01 -2.570880e-01 -1.818480e-01 3.797213e-02
<VARIANCE> 39
 1.814059e+01 3.372815e+01 1.833186e+01 2.654156e+01 2.361048e+01 2.959265e+01 2.858815e+01 2.969054e+01 3.518884e+01 2.963409e+01 3.234231e+01 2.659784e+01 2.325595e-02 1.590101e+00 2.004812e+00 2.425018e+00 2.236514e+00 2.613018e+00 3.052206e+00 3.241052e+00 3.133817e+00 3.203076e+00 3.223047e+00 3.574671e+00 3.651350e+00 2.280127e-03 2.221274e-01 3.598469e-01 3.079296e-01 4.489501e-01 4.008173e-01 4.674432e-01 5.230697e-01 6.095983e-01 6.349719e-01 5.827399e-01 5.025648e-01 5.183058e-01 2.791003e-04
<GCONST> 9.573786e+01
<MIXTURE> 2 8.584601e-02
<MEAN> 39
 2.862575e+00 3.886561e+00 6.755963e+00 3.979795e+00 1.544926e+00 3.684584e-01 -1.968686e+00 -3.492200e+00 -5.995405e-01 -2.626923e+00 -2.661380e+00 -3.075018e-01 4.770007e-01 2.704145e+00 2.314984e+00 1.086347e-01 -1.351798e+00 -1.503412e+00 -1.513387e+00 -1.866310e+00 -1.225361e+00 -1.282388e+00 -6.843730e-01 -6.093597e-01 -6.747863e-01 1.866018e-01 -5.459712e-01 -4.219502e-01 -6.601017e-01 -5.661362e-01 -1.006476e-01 1.233093e-01 2.224416e-01 5.449075e-01 4.876627e-01 4.752309e-01 4.935675e-01 2.920709e-01 -1.787814e-02
<VARIANCE> 39
 2.607330e+01 3.642815e+01 2.967492e+01 2.603853e+01 3.506177e+01 3.100324e+01 3.507027e+01 3.546769e+01 3.122988e+01 2.595451e+01 2.795445e+01 2.092179e+01 2.659841e-02 2.658030e+00 2.569277e+00 4.202333e+00 3.660625e+00 3.510972e+00 3.420175e+00 3.985460e+00 3.723422e+00 4.192353e+00 3.309519e+00 3.712287e+00 3.225446e+00 2.627554e-03 3.632826e-01 2.233333e-01 3.159911e-01 4.576030e-01 4.137266e-01 4.718197e-01 5.727484e-01 4.984037e-01 4.864064e-01 4.023228e-01 4.209372e-01 3.811483e-01 3.457844e-04
<GCONST> 9.898756e+01
<MIXTURE> 3 1.456884e-01
<MEAN> 39
 -2.035534e+00 1.251425e+00 2.702393e+00 3.012427e+00 2.452233e+00 4.156141e+00 1.473651e+00 3.855157e+00 3.682098e+00 1.296730e+00 2.167563e+00 9.233215e-01 -8.471999e-02 7.682487e-02 1.896772e-01 8.139724e-02 -4.058334e-02 -8.345797e-02 5.454734e-02 6.068011e-02 5.935330e-02 -2.966535e-02 -4.361558e-02 -2.626231e-02 1.931944e-02 -1.734749e-03 -1.495024e-02 -2.948768e-02 5.745526e-03 1.652166e-03 1.680934e-02 6.998477e-03 1.152187e-02 5.672094e-04 -1.042517e-02 3.932809e-02 5.591130e-03 -1.500032e-02 2.276415e-03
<VARIANCE> 39
 6.189972e+00 3.106337e+01 1.513936e+01 1.772589e+01 1.825694e+01 2.182843e+01 2.073890e+01 2.233932e+01 1.431755e+01 2.242035e+01 2.039376e+01 1.692528e+01 4.857801e-03 1.783827e-01 5.469867e-01 5.117434e-01 7.111381e-01 1.099839e+00 1.107230e+00 1.205986e+00 1.264116e+00 1.183783e+00 1.370547e+00 1.235030e+00 1.109493e+00 3.754082e-05 4.363314e-02 9.158603e-02 1.029410e-01 1.408027e-01 2.159023e-01 2.320401e-01 2.412765e-01 2.527566e-01 2.576676e-01 2.711656e-01 2.533098e-01 2.477599e-01 2.414864e-05
<GCONST> 5.722435e+01
<MIXTURE> 4 9.243336e-02
<MEAN> 39
 2.765423e+00 4.813897e+00 2.923751e+00 -1.824996e-01 -8.442723e-01 5.778735e-01 -7.099093e-01 4.516620e+00 5.518780e+00 6.942696e+00 7.062945e+00 5.504668e+00 4.450551e-01 2.391902e+00 1.578027e+00 -2.114987e+00 -2.681441e+00 -2.592169e+00 -3.070140e+00 -2.005952e+00 -1.995590e+00 -1.337363e+00 -5.878640e-01 -5.720369e-02 5.642948e-01 1.938390e-01 -4.491300e-01 -3.336833e-01 -6.828767e-02 1.216219e-01 3.928186e-01 3.118205e-01 2.699374e-01 -1.208848e-02 -4.424167e-01 -6.681142e-01 -7.169471e-01 -5.677407e-01 -1.258760e-02
<VARIANCE> 39
 3.137314e+01 5.137925e+01 5.255810e+01 4.441045e+01 3.262654e+01 3.938981e+01 4.658125e+01 3.614066e+01 4.295171e+01 3.417522e+01 3.875079e+01 3.838039e+01 3.758683e-02 3.110612e+00 4.573873e+00 4.530773e+00 3.168459e+00 3.384915e+00 3.961546e+00 4.636978e+00 3.721191e+00 3.919927e+00 4.464070e+00 4.911580e+00 4.717936e+00 3.399731e-03 3.591340e-01 3.712436e-01 7.052092e-01 7.074291e-01 5.100586e-01 5.532376e-01 7.471006e-01 6.213204e-01 7.094219e-01 5.942658e-01 5.627787e-01 6.489299e-01 4.678757e-04
<GCONST> 1.095233e+02
<MIXTURE> 5 2.747969e-01
<MEAN> 39
 -2.355753e+00 -2.881365e+00 1.839057e+00 2.812855e+00 3.757563e+00 3.583925e+00 2.475518e+00 2.487209e+00 3.128396e+00 2.061428e+00 1.647285e+00 1.153162e+00 6.611667e-02 -5.823354e-01 -2.868331e-02 -3.545763e-03 1.997691e-01 1.991716e-02 6.053282e-02 -1.882646e-02 2.874828e-02 -4.199803e-02 -8.962061e-03 1.247487e-02 -7.156971e-02 -2.406225e-02 2.498021e-01 3.068794e-01 9.978316e-02 1.202862e-01 -1.258164e-02 -3.965303e-02 -9.251299e-02 -4.811532e-02 -5.094082e-02 -5.721594e-02 -3.956488e-02 1.874949e-02 2.678972e-02
<VARIANCE> 39
 1.327676e+01 4.309177e+01 2.581985e+01 3.006585e+01 2.675263e+01 3.110455e+01 2.927027e+01 3.708402e+01 3.173484e+01 3.015545e+01 2.886384e+01 1.962770e+01 2.110827e-02 1.183616e+00 1.618116e+00 1.433922e+00 1.785692e+00 1.882866e+00 2.172133e+00 2.045727e+00 2.531464e+00 2.449693e+00 2.269503e+00 2.088838e+00 1.812195e+00 3.367318e-03 2.384696e-01 3.442939e-01 2.888775e-01 3.204757e-01 3.779314e-01 4.431342e-01 4.337721e-01 5.327346e-01 5.172973e-01 4.757835e-01 4.011362e-01 3.390239e-01 4.736579e-04
<GCONST> 9.055273e+01
<MIXTURE> 6 1.935372e-01
<MEAN> 39
 -2.820080e+00 -3.007735e+00 2.129102e+00 3.137372e+00 4.629447e+00 5.308822e+00 5.529987e+00 4.794162e+00 3.563817e+00 3.621321e+00 3.135578e+00 2.039467e+00 2.202472e-01 1.538104e-01 3.531935e-01 -2.599193e-01 -1.147886e-01 -4.260005e-01 -5.349376e-01 -3.930646e-01 -2.805154e-01 -2.470481e-01 3.135228e-01 -4.217284e-02 -1.605406e-01 4.528169e-02 4.330260e-01 2.354048e-01 -1.181956e-01 -2.751735e-01 -4.129956e-01 -3.333049e-01 -4.532013e-01 -3.937238e-01 -3.351291e-01 -2.175038e-01 -2.478790e-01 -1.109844e-01 3.176716e-02
<VARIANCE> 39
 2.137471e+01 5.579280e+01 5.278157e+01 5.600303e+01 5.008947e+01 6.601763e+01 5.621755e+01 6.029913e+01 5.230223e+01 5.517483e+01 6.500994e+01 4.336270e+01 4.919751e-02 3.282923e+00 5.349465e+00 4.368127e+00 4.858398e+00 4.130023e+00 5.112868e+00 5.462843e+00 5.231817e+00 5.379179e+00 4.753201e+00 4.885064e+00 4.178742e+00 1.101145e-02 4.666169e-01 8.065670e-01 7.296292e-01 9.407218e-01 8.708838e-01 1.091777e+00 1.057182e+00 1.059254e+00 1.065790e+00 1.074844e+00 1.218130e+00 9.597308e-01 1.180770e-03
<GCONST> 1.222167e+02
~h "#i"
<BEGINHMM>
<NUMSTATES> 13
<STATE> 2
<NUMMIXES> 12
<MIXTURE> 1 1.217415e-02
<MEAN> 39
 -6.254009e+00 1.076981e+01 -4.457253e+00 -4.590993e+00 -6.014452e+00 -3.240418e+00 5.232995e+00 3.602195e+00 1.707825e+01 1.854457e+01 1.165582e+01 9.390572e+00 9.303478e-01 -2.832134e-01 1.059901e-01 3.513045e-01 -1.957128e-02 -1.943000e-01 6.515690e-03 -2.290145e-01 3.296477e-01 1.623088e+00 2.075667e+00 6.162772e-01 3.677735e-01 1.967028e-02 5.367273e-01 -1.848247e-02 -5.639507e-03 5.451232e-02 -1.281702e-01 5.332971e-02 1.960684e-01 2.851652e-01 -6.657048e-01 -1.287535e+00 -1.045673e+00 -9.403722e-01 -1.105480e-02
<VARIANCE> 39
 7.741564e+00 2.310620e+01 8.660285e+00 2.022321e+01 3.634888e+00 7.717916e+00 1.625211e+01 2.400777e+01 3.258538e+01 1.759410e+01 1.717344e+01 7.188397e+01 8.178990e-04 7.657848e-01 8.687077e-01 1.153684e+00 1.575477e+00 9.641063e-01 8.983353e-01 1.489485e+00 1.078242e+00 3.927178e+00 3.377738e+00 3.341320e+00 1.391042e+00 7.202652e-05 1.018711e-01 1.346418e-01 1.861031e-01 2.089791e-01 8.730421e-02 1.728298e-01 1.859223e-01 2.589622e-01 4.330232e-01 2.904333e-01 2.570531e-01 3.215997e-01 6.086850e-05
<GCONST> 6.375774e+01
<MIXTURE> 2 4.806242e-02
<MEAN> 39
 -2.686052e+00 1.072751e+01 -5.842336e+00 -2.942945e+00 -7.856498e+00 -6.433316e+00 -7.226338e-01 -2.117349e+00 6.417348e-01 2.383862e+00 6.814511e+00 1.319438e+01 8.352455e-01 -5.944913e-01 -1.010359e-01 -7.080130e-02 3.705544e-01 4.157995e-02 6.769157e-02 -1.023321e+00 -5.744151e-01 3.907268e-01 1.328845e+00 2.781519e+00 2.819514e+00 2.994975e-02 4.547224e-01 1.164555e-01 2.688430e-01 1.895468e-01 2.900102e-01 2.353096e-01 3.586573e-01 4.221216e-01 3.092142e-01 1.784598e-02 -5.608242e-01 -9.907926e-01 -1.319071e-02
<VARIANCE> 39
 2.009311e+01 2.295319e+01 2.783177e+01 1.340775e+01 2.062866e+01 1.577534e+01 1.815448e+01 1.964308e+01 2.655960e+01 4.279313e+01 3.498884e+01 3.603956e+01 8.589968e-03 5.562356e-01 4.924340e-01 9.091048e-01 6.693074e-01 1.299642e+00 1.138242e+00 1.548304e+00 1.317292e+00 1.803709e+00 3.764792e+00 3.039084e+00 3.500338e+00 2.456263e-04 8.478907e-02 1.405356e-01 2.010621e-01 1.208238e-01 2.536679e-01 1.777521e-01 2.815395e-01 2.511648e-01 2.616019e-01 4.922190e-01 4.821947e-01 4.161628e-01 1.392325e-04
<GCONST> 7.366299e+01
<MIXTURE> 3 1.760679e-01
<MEAN> 39
 3.641526e-01 1.116903e+01 -4.250019e+00 -3.958484e+00 -5.466890e+00 -5.473535e+00 -2.433400e+00 -3.707911e-01 -4.320481e+00 -2.410220e+00 -5.213085e+00 -1.995046e+00 7.335263e-01 1.288332e-01 9.356463e-01 -9.693809e-02 8.686641e-01 -7.640177e-01 1.202802e-01 -5.796701e-01 -4.704735e-01 -7.743821e-01 -5.948496e-02 -5.901633e-01 7.501556e-01 6.243902e-03 -9.363964e-03 -1.382245e-01 2.475156e-01 -8.874832e-02 2.230644e-01 8.326005e-02 -2.718931e-02 1.145718e-01 2.910282e-01 1.123994e-01 4.129077e-01 1.856482e-01 6.230277e-03
<VARIANCE> 39
 1.510124e+01 2.394387e+01 1.996754e+01 2.852457e+01 1.899782e+01 2.073886e+01 3.567685e+01 3.333303e+01 3.047312e+01 3.032018e+01 4.444520e+01 4.375134e+01 1.511330e-02 6.786067e-01 1.134369e+00 1.160750e+00 1.741252e+00 1.710154e+00 2.817651e+00 2.810136e+00 2.407620e+00 2.656276e+00 2.798896e+00 3.468017e+00 3.909367e+00 6.775331e-04 1.056508e-01 2.118406e-01 2.045207e-01 3.243247e-01 2.899316e-01 5.024114e-01 4.115469e-01 3.980301e-01 4.843956e-01 5.577081e-01 5.164338e-01 5.705533e-01 6.121166e-05
<GCONST> 8.594163e+01
<MIXTURE> 4 1.156686e-01
<MEAN> 39
 3.209159e+00 1.317892e+01 -2.141736e+00 -8.547327e-01 -2.638219e+00 -2.347572e+00 8.204550e-01 1.704153e+00 2.957086e-01 2.865859e+00 6.513059e-01 4.630925e+00 6.831474e-01 4.699308e-02 6.431061e-01 -1.381613e-01 2.329974e-02 -4.961609e-01 -3.667150e-01 -1.489007e-01 -2.776376e-02 -6.824321e-03 -1.706085e-01 -1.211337e-01 2.567540e-01 1.736807e-02 -2.492424e-01 -1.887869e-01 -2.434523e-01 -1.617947e-01 -2.610810e-01 -4.146704e-01 -3.542534e-01 -2.804689e-01 -3.154531e-01 -4.394329e-01 -4.122412e-01 -4.512649e-01 9.476387e-03
<VARIANCE> 39
 1.050371e+01 2.334574e+01 2.334409e+01 1.559124e+01 1.587455e+01 1.292067e+01 3.427672e+01 2.648448e+01 2.378148e+01 3.210770e+01 3.255445e+01 4.557938e+01 1.391121e-02 3.982058e-01 7.006090e-01 6.014249e-01 8.250528e-01 8.039376e-01 9.743108e-01 1.422014e+00 1.254327e+00 1.525496e+00 1.609661e+00 2.429245e+00 1.789599e+00 4.995868e-04 7.880851e-02 1.501152e-01 1.151154e-01 1.707607e-01 1.778270e-01 1.860174e-01 2.376999e-01 2.129740e-01 2.937095e-01 2.617203e-01 3.046912e-01 3.764706e-01 7.515967e-05
<GCONST> 6.901405e+01
<MIXTURE> 5 2.580577e-02
<MEAN> 39
 1.277996e+00 8.342706e+00 -9.088482e+00 -5.319396e+00 -1.992723e+00 -2.062825e+00 1.748849e+00 -8.129753e-01 6.072739e+00 7.593570e+00 4.820395e+00 6.066705e+00 8.759712e-01 -1.693450e+00 -2.521175e-01 -3.696841e-01 -7.725151e-01 -1.045455e+00 -1.201485e+00 -1.538628e+00 -2.338787e+00 -8.992304e-02 1.596290e+00 2.015645e+00 1.865091e+00 6.079423e-02 -1.978083e-01 -3.212853e-01 7.107300e-01 5.587196e-01 2.108777e-01 2.420139e-01 -1.503669e-03 2.750455e-01 -3.318487e-01 -4.819998e-01 -7.155062e-02 -1.511624e-01 -2.964173e-02
<VARIANCE> 39
 1.295084e+01 2.567041e+01 1.050179e+01 2.068337e+01 3.196990e+01 2.083982e+01 3.334673e+01 4.371560e+01 5.684023e+01 2.856858e+01 5.739589e+01 1.079551e+02 3.425044e-03 5.715655e-01 1.191996e+00 1.458991e+00 1.427641e+00 1.891858e+00 3.867030e+00 4.069529e+00 2.975878e+00 8.842909e+00 1.189273e+01 6.001708e+00 5.580853e+00 1.621056e-03 1.977828e-01 3.602649e-01 2.916190e-01 2.990675e-01 4.490057e-01 1.030784e+00 5.690666e-01 6.351516e-01 4.694497e-01 6.002849e-01 7.868031e-01 8.123171e-01 4.712369e-04
<GCONST> 9.743163e+01
<MIXTURE> 6 1.317056e-01
<MEAN> 39
 -1.694506e+00 1.271128e+01 1.769455e+00 -5.110497e+00 -2.996327e+00 -6.434609e+00 -7.762289e+00 -4.810282e-01 1.977616e+00 -3.680610e+00 4.695772e+00 1.273566e-01 8.259933e-01 -1.831028e-01 1.459815e+00 -6.397287e-01 1.359257e+00 -7.411375e-01 -1.177257e-01 -8.719757e-01 -5.148548e-01 -4.990238e-01 -1.035982e+00 8.943108e-01 -1.221671e+00 3.631426e-03 1.476418e-01 -4.825948e-01 1.132071e-01 -1.401769e-01 -3.018683e-01 4.443196e-01 1.741067e-01 2.199074e-01 -1.735493e-01 3.711642e-01 -4.450218e-01 -1.379577e-01 2.065053e-03
<VARIANCE> 39
 8.736505e+00 2.408311e+01 1.298851e+01 2.127068e+01 1.797987e+01 1.918780e+01 2.076286e+01 2.388329e+01 2.506346e+01 3.389170e+01 2.273822e+01 2.290556e+01 6.933936e-03 2.678120e-01 6.584000e-01 7.600425e-01 1.100792e+00 1.107045e+00 1.514484e+00 1.659027e+00 1.444321e+00 1.412192e+00 1.870624e+00 1.472596e+00 1.432052e+00 2.048553e-04 4.139844e-02 1.433203e-01 1.123020e-01 1.938829e-01 2.228282e-01 2.196082e-01 2.451340e-01 2.445901e-01 2.188553e-01 2.882566e-01 3.181567e-01 2.972582e-01 1.666472e-05
<GCONST> 6.451793e+01
<MIXTURE> 7 9.456895e-02
<MEAN> 39
 1.553385e+00 1.339703e+01 -1.625821e+00 -1.169847e-01 -4.087144e+00 -4.797980e+00 3.376968e+00 4.339482e+00 3.376808e+00 5.554309e+00 3.178797e-01 4.387517e+00 6.402680e-01 3.145505e-01 1.628800e+00 -2.876499e-01 3.123028e-01 -1.138993e+00 -1.496061e-01 -1.030439e+00 -5.630300e-01 -1.109962e+00 -2.080397e-01 -1.222409e+00 5.633683e-01 2.974283e-02 -1.292981e-01 -5.971025e-01 6.496155e-03 -4.672560e-01 7.476454e-02 3.410829e-02 -2.431895e-01 -3.449835e-01 -3.677981e-01 -5.432793e-01 -1.280525e-01 -2.545449e-01 1.016528e-02
<VARIANCE> 39
 8.646796e+00 2.397146e+01 1.786719e+01 2.662372e+01 1.472655e+01 2.213805e+01 2.055107e+01 2.531876e+01 2.590034e+01 2.419383e+01 3.652964e+01 3.079856e+01 1.178807e-02 7.286346e-01 3.165194e+00 1.205931e+00 2.131559e+00 1.781102e+00 3.251395e+00 2.292954e+00 3.037995e+00 2.945450e+00 2.957896e+00 3.962532e+00 3.026138e+00 2.272640e-03 1.366660e-01 3.483662e-01 2.425712e-01 2.892363e-01 3.587305e-01 5.180951e-01 4.381218e-01 4.271200e-01 4.609389e-01 4.523060e-01 6.604863e-01 5.434617e-01 1.522718e-04
<GCONST> 8.783917e+01
<MIXTURE> 8 1.127155e-01
<MEAN> 39
 -1.345240e+00 9.874222e+00 1.287942e+00 -8.994245e+00 -1.148614e+00 -9.219721e+00 -9.344635e-01 2.291186e+00 1.517342e+00 -4.529908e-02 9.104261e-01 -1.144992e+00 8.057912e-01 -6.097845e-01 2.966237e+00 -1.607975e+00 1.906688e+00 -3.006537e-01 -1.688756e+00 -6.812252e-01 -1.166577e+00 -9.982054e-01 -1.055689e+00 4.672377e-01 3.185444e-01 -8.522253e-03 3.376943e-01 -7.569121e-01 -4.614237e-02 8.428646e-01 -8.087448e-01 9.485255e-01 1.431287e-01 -2.076696e-01 -4.038787e-01 -1.315653e-01 -2.944820e-01 -5.044932e-02 2.267614e-03
<VARIANCE> 39
 1.029597e+01 2.435749e+01 2.477294e+01 2.705571e+01 1.960126e+01 3.041286e+01 5.192168e+01 3.261253e+01 3.692966e+01 3.568058e+01 3.849002e+01 3.916655e+01 7.639772e-03 6.228208e-01 1.750826e+00 9.545000e-01 1.891415e+00 3.076754e+00 4.072863e+00 3.231647e+00 2.725542e+00 4.172177e+00 5.876796e+00 4.130690e+00 3.909695e+00 3.598977e-04 1.025716e-01 2.887500e-01 3.560857e-01 5.324538e-01 3.775636e-01 5.072531e-01 5.241037e-01 5.604889e-01 7.246942e-01 6.213553e-01 5.665280e-01 7.470693e-01 2.982917e-05
<GCONST> 9.045697e+01
<MIXTURE> 9 4.422927e-02
<MEAN> 39
 -8.203232e-01 1.056081e+01 -4.638106e+00 -3.065737e+00 -6.387439e+00 -5.467465e+00 1.402329e+00 -7.026864e-01 1.799911e-01 -3.269741e+00 -2.876799e+00 1.732333e+00 7.883328e-01 -1.558431e+00 -2.546492e-01 -6.115469e-01 1.334413e-01 -2.061554e-01 -3.921788e-01 -1.249356e+00 -1.474585e+00 -1.078341e+00 -2.479265e-01 1.429461e+00 2.558830e+00 5.581577e-02 2.316650e-02 -5.003610e-01 5.506814e-01 5.639036e-01 7.280699e-01 7.552002e-01 1.081170e-01 4.205790e-01 3.553824e-01 7.858084e-01 5.715566e-01 2.174744e-01 -3.036366e-02
<VARIANCE> 39
 1.210915e+01 3.885511e+01 2.928739e+01 1.426986e+01 2.733575e+01 1.543892e+01 2.855724e+01 1.729990e+01 2.583187e+01 4.273978e+01 3.947243e+01 5.319113e+01 7.764813e-03 5.589161e-01 5.587907e-01 7.936071e-01 1.076264e+00 7.288605e-01 1.073742e+00 9.091155e-01 2.193434e+00 1.691434e+00 2.639481e+00 5.923426e+00 6.563102e+00 3.163403e-04 1.267366e-01 2.704156e-01 4.227722e-01 2.598854e-01 3.605888e-01 2.490378e-01 3.587220e-01 2.429071e-01 2.164016e-01 3.960203e-01 3.599876e-01 6.890649e-01 4.158544e-04
<GCONST> 8.006508e+01
<MIXTURE> 10 6.843483e-02
<MEAN> 39
 3.058509e-01 1.352501e+01 4.166766e-01 2.357190e+00 -5.324396e+00 -1.835424e+00 -1.161395e+01 2.789454e-02 -2.034495e+00 -2.790995e+00 5.136399e+00 -4.531266e+00 7.817438e-01 -3.297405e-01 1.158862e+00 -1.982464e-01 3.749311e-01 -4.804284e-01 4.246943e-01 -7.554878e-01 6.126884e-01 -1.080239e+00 -5.574282e-01 2.344913e-01 -1.644464e-01 9.489305e-03 4.766332e-02 -3.261246e-01 1.777300e-01 -5.675254e-01 9.117712e-02 -1.820269e-01 3.500889e-01 1.645882e-01 1.892347e-01 1.731057e-01 -2.508698e-01 2.123079e-01 2.232755e-03
<VARIANCE> 39
 6.209427e+00 4.372392e+01 1.493613e+01 2.017682e+01 1.129594e+01 1.801273e+01 2.536470e+01 2.208129e+01 2.148694e+01 1.862259e+01 1.651510e+01 1.358097e+01 3.103947e-03 8.969409e-01 1.222921e+00 1.444147e+00 2.178206e+00 1.189763e+00 1.376338e+00 1.588559e+00 1.989755e+00 1.969425e+00 1.569146e+00 1.182495e+00 1.145434e+00 2.133739e-04 1.187391e-01 3.090535e-01 3.184556e-01 2.660818e-01 1.743224e-01 2.564008e-01 3.034535e-01 4.234622e-01 2.890163e-01 3.872009e-01 2.281234e-01 2.860982e-01 2.066703e-05
<GCONST> 6.948520e+01
<MIXTURE> 11 7.790429e-02
<MEAN> 39
 8.478012e-01 1.249169e+01 -5.266731e-02 -3.302033e+00 -7.857094e+00 -3.560531e+00 -9.760965e+00 1.677249e-01 -1.779495e+00 -3.921156e+00 3.755252e+00 -4.442780e+00 7.715867e-01 -1.046975e+00 1.471168e+00 -1.952340e-01 -4.908810e-01 -1.088689e-01 9.621117e-02 -8.670273e-01 2.062174e-01 1.987736e-01 -5.315252e-01 8.351575e-01 -6.467826e-01 5.599583e-02 -2.435564e-01 -8.780213e-01 1.155830e-01 3.765032e-01 4.197221e-01 2.484710e-01 6.828594e-01 -2.019708e-02 2.196872e-01 1.952932e-01 -2.481056e-01 4.573214e-01 -2.878894e-02
<VARIANCE> 39
 9.028160e+00 4.818485e+01 1.442313e+01 1.770506e+01 2.827673e+01 2.768832e+01 2.668104e+01 2.015709e+01 2.082427e+01 2.154037e+01 2.142135e+01 1.645916e+01 1.168037e-02 5.089886e-01 2.075931e+00 1.293447e+00 1.648896e+00 1.925462e+00 1.901848e+00 2.138418e+00 3.583071e+00 2.075642e+00 2.116709e+00 1.495368e+00 1.630838e+00 4.933104e-04 1.771203e-01 4.088314e-01 1.790925e-01 2.594113e-01 4.084938e-01 3.455673e-01 4.176982e-01 3.799927e-01 3.357642e-01 2.637316e-01 2.901667e-01 2.768570e-01 4.180404e-04
<GCONST> 8.045264e+01
<MIXTURE> 12 9.265950e-02
<MEAN> 39
 1.280083e+00 1.193708e+01 -2.885815e+00 -2.755355e+00 -5.588051e+00 -4.438823e+00 -3.495666e-01 2.850528e+00 -9.633924e-01 2.832835e+00 -1.326732e+00 3.805396e+00 7.794948e-01 -9.016272e-01 4.952841e-01 -7.924926e-01 -6.408339e-01 -8.241786e-01 -1.165237e+00 -1.051549e+00 -1.166495e+00 -1.816120e+00 -1.658241e+00 -1.764472e+00 -6.999204e-01 7.574514e-02 -4.033079e-01 -1.038728e+00 4.018123e-01 5.901707e-01 7.062855e-01 6.979883e-01 9.601390e-02 8.273298e-02 3.068838e-01 4.858541e-03 3.060710e-01 -1.744468e-01 -3.974420e-02
<VARIANCE> 39
 1.442925e+01 5.049128e+01 1.622384e+01 1.679715e+01 1.730014e+01 3.019787e+01 3.186171e+01 3.263499e+01 2.816322e+01 2.156841e+01 2.746034e+01 4.051970e+01 1.151986e-02 9.425745e-01 1.405292e+00 1.089339e+00 1.375842e+00 1.435016e+00 1.668825e+00 2.000188e+00 2.257810e+00 1.672126e+00 1.499596e+00 3.384784e+00 3.828478e+00 1.046780e-03 1.596654e-01 3.637598e-01 2.688741e-01 2.646655e-01 3.147750e-01 4.529065e-01 4.144506e-01 4.357105e-01 4.064127e-01 3.131905e-01 4.426516e-01 5.968361e-01 3.464580e-04
<GCONST> 8.521857e+01
<STATE> 3
<NUMMIXES> 12
<MIXTURE> 1 4.023652e-02
<MEAN> 39
 -3.585608e+00 1.166855e+01 -9.298857e+00 -4.031913e+00 -7.955165e+00 -6.825861e+00 1.583173e-01 -3.397592e-01 8.131183e+00 1.142077e+01 1.524778e+01 1.700234e+01 8.960540e-01 -8.077903e-02 -1.607993e-01 -2.202919e-01 3.471141e-03 -3.398340e-01 -4.060929e-01 -3.900299e-01 1.191349e-02 3.047975e-01 2.159213e-01 2.288631e-01 2.103102e-01 8.282522e-03 1.475903e-01 7.142358e-02 1.129473e-01 5.626098e-02 1.081172e-01 1.716467e-01 1.329464e-01 6.266749e-02 -9.758733e-02 -2.263567e-01 -3.520974e-01 -2.687734e-01 -3.260523e-03
<VARIANCE> 39
 2.079309e+01 4.741522e+01 3.158363e+01 9.437098e+00 2.284158e+01 1.336957e+01 1.895186e+01 2.740335e+01 4.351917e+01 4.740329e+01 3.276161e+01 3.809340e+01 5.396719e-03 3.831466e-01 6.679750e-01 7.033494e-01 1.003346e+00 1.500554e+00 9.908449e-01 1.263174e+00 7.225298e-01 7.494029e-01 9.824785e-01 1.492647e+00 1.215298e+00 5.927511e-05 5.007007e-02 1.014261e-01 1.091200e-01 1.346880e-01 1.786663e-01 1.232823e-01 1.960517e-01 1.424142e-01 1.943607e-01 1.493609e-01 2.871907e-01 1.907106e-01 7.208813e-06
<GCONST> 5.975035e+01
<MIXTURE> 2 5.955476e-02
<MEAN> 39
 -1.987434e+00 1.074057e+01 -6.033558e+00 -4.109185e+00 -1.110077e+01 -9.588096e+00 -5.304563e+00 -6.045261e+00 -7.067159e+00 -4.874759e+00 -7.224552e+00 1.011905e+00 8.247995e-01 2.861986e-01 5.724738e-01 2.495173e-01 6.616939e-01 -9.517734e-02 5.005897e-01 -5.019963e-02 1.305923e-01 7.968173e-02 7.199419e-02 2.232072e-01 5.807704e-01 7.429045e-03 1.510135e-01 2.043394e-01 2.761145e-01 1.894310e-01 6.203015e-01 3.242213e-01 5.000186e-01 6.822439e-01 5.252953e-01 4.617262e-01 3.561495e-01 8.029953e-02 -1.154380e-05
<VARIANCE> 39
 1.064376e+01 1.859157e+01 1.247181e+01 2.507281e+01 1.152051e+01 2.147629e+01 2.105511e+01 1.993371e+01 2.551744e+01 2.139567e+01 1.557595e+01 2.336928e+01 8.776215e-03 2.397182e-01 6.673757e-01 1.059961e+00 1.558908e+00 1.563904e+00 1.601604e+00 1.875094e+00 1.724456e+00 1.621364e+00 2.200099e+00 1.830723e+00 1.192961e+00 1.104958e-04 5.943078e-02 1.216127e-01 1.662056e-01 3.247087e-01 1.285160e-01 2.702000e-01 2.322373e-01 2.443974e-01 2.000241e-01 2.845427e-01 2.224216e-01 2.555881e-01 2.045528e-05
<GCONST> 6.481915e+01
<MIXTURE> 3 1.527788e-01
<MEAN> 39
 -1.161451e+00 1.028589e+01 -2.741047e+00 -1.251880e+00 -3.320948e+00 -2.822424e+00 -2.705813e+00 -1.628947e+00 -3.556543e+00 -8.633798e-01 -1.028390e+00 4.170195e+00 8.921296e-01 6.700235e-02 1.731407e-01 3.178708e-01 5.270863e-01 2.961112e-01 6.708243e-02 1.221441e-02 1.010022e-01 1.740373e-01 4.553446e-02 1.510555e-01 5.275709e-01 1.637495e-02 1.229469e-01 -3.349594e-02 -1.608518e-02 -4.522385e-02 -6.992012e-02 -1.088033e-01 4.762432e-02 2.068805e-01 2.366770e-01 1.724099e-01 3.033567e-02 -1.887551e-01 -5.361044e-03
<VARIANCE> 39
 9.099457e+00 3.852961e+01 1.175047e+01 1.341206e+01 1.581180e+01 2.996960e+01 2.391773e+01 2.136449e+01 2.039870e+01 2.311227e+01 4.078064e+01 3.641875e+01 4.723367e-03 3.108857e-01 4.490789e-01 4.844240e-01 7.394165e-01 7.879546e-01 7.993726e-01 9.736146e-01 9.529886e-01 1.223377e+00 1.266113e+00 1.663194e+00 1.394420e+00 8.598833e-05 5.594879e-02 5.884374e-02 6.914955e-02 1.364519e-01 1.307160e-01 1.368667e-01 1.452846e-01 1.911340e-01 2.259443e-01 1.561225e-01 3.205477e-01 2.640958e-01 2.150965e-05
<GCONST> 5.693534e+01
<MIXTURE> 4 1.315213e-01
<MEAN> 39
 -3.790233e-01 1.400171e+01 1.281454e-01 -1.218682e+00 -7.286926e+00 -8.524926e+00 -7.712306e+00 1.134870e+00 -3.619204e+00 2.143440e-02 -1.015788e+00 -3.402628e+00 8.200902e-01 5.335024e-03 8.072719e-01 -4.689856e-03 2.870374e-01 -4.503744e-01 -1.326128e-01 -2.927316e-01 4.715581e-02 -2.328671e-02 8.492933e-02 -2.461518e-01 -6.530583e-02 3.287707e-03 5.123978e-04 -1.862337e-01 -1.301984e-01 -2.925439e-01 2.435735e-01 2.167246e-01 1.408474e-01 -1.422182e-01 1.055516e-01 -9.389839e-02 7.352710e-03 1.218154e-01 1.065363e-03
<VARIANCE> 39
 9.631955e+00 2.730418e+01 2.525975e+01 1.952837e+01 2.197783e+01 2.157690e+01 3.947660e+01 3.481658e+01 3.204832e+01 3.929139e+01 4.870741e+01 3.604463e+01 5.766482e-03 2.144360e-01 5.160201e-01 9.254167e-01 1.054353e+00 9.386798e-01 1.774054e+00 1.935498e+00 1.277363e+00 1.336908e+00 1.811933e+00 1.147416e+00 1.566861e+00 7.607145e-05 2.965618e-02 7.023671e-02 1.613457e-01 1.737425e-01 2.183231e-01 2.640615e-01 3.279109e-01 2.250227e-01 3.286964e-01 3.236535e-01 2.685139e-01 3.240145e-01 7.582433e-06
<GCONST> 6.578726e+01
<MIXTURE> 5 6.311072e-02
<MEAN> 39
 -2.482808e+00 1.014144e+01 -6.051349e+00 -2.472284e+00 -8.369560e+00 -9.248158e+00 -5.983357e+00 -5.427029e+00 -5.818757e+00 -3.330365e+00 -7.058590e+00 1.710886e+00 9.034259e-01 -1.568337e-02 -1.427114e-01 -7.322424e-02 3.855135e-01 3.265296e-02 -1.190446e-01 -4.709094e-01 -5.771445e-01 -1.464255e-01 -3.461370e-01 -7.260561e-02 6.957827e-02 1.621566e-02 3.102036e-01 2.998986e-01 4.331416e-01 2.546628e-01 4.378385e-01 5.926095e-01 6.285166e-01 6.231924e-01 5.837732e-01 4.631253e-01 5.705429e-01 2.698494e-01 -6.140376e-03
<VARIANCE> 39
 1.157415e+01 3.377398e+01 1.587644e+01 9.324025e+00 1.631266e+01 1.560065e+01 2.012232e+01 2.236749e+01 1.808683e+01 1.756216e+01 2.536700e+01 2.659595e+01 4.579930e-03 2.364201e-01 2.436902e-01 3.098086e-01 4.387340e-01 6.023704e-01 6.025320e-01 8.404313e-01 8.253241e-01 5.314651e-01 1.022425e+00 6.226427e-01 1.297402e+00 8.636237e-05 5.145560e-02 5.750285e-02 5.172505e-02 7.719360e-02 1.062927e-01 9.532582e-02 1.423149e-01 1.537272e-01 1.654146e-01 2.031871e-01 2.701189e-01 1.751694e-01 1.227273e-05
<GCONST> 4.725911e+01
<MIXTURE> 6 5.665200e-02
<MEAN> 39
 -3.676288e+00 1.536490e+01 9.457036e-01 -1.992363e+00 -8.017704e+00 -1.985892e+00 -1.065297e+01 -2.997258e-01 5.213830e-01 -8.722426e+00 6.503023e+00 -4.421835e+00 8.759057e-01 -3.424397e-01 2.194715e-01 -1.316771e-01 -1.223572e-01 -2.017578e-01 7.352621e-03 -8.798753e-02 -3.547175e-01 -1.801405e-01 -4.065545e-01 1.115371e-01 -5.101446e-01 1.662033e-02 1.975617e-01 -2.636151e-01 4.665031e-02 -4.349131e-02 1.986235e-01 -1.058082e-01 3.677398e-02 -7.231065e-02 1.775057e-02 3.221764e-01 -2.238416e-01 1.650127e-01 -5.172509e-03
<VARIANCE> 39
 6.475222e+00 1.534061e+01 1.052037e+01 8.646056e+00 1.189039e+01 1.957265e+01 1.805891e+01 2.175847e+01 2.197914e+01 1.434245e+01 1.451783e+01 7.463980e+00 3.982444e-03 2.631722e-01 4.923804e-01 3.570258e-01 5.998729e-01 4.640027e-01 6.505346e-01 5.479001e-01 1.017862e+00 1.215782e+00 5.752752e-01 8.490793e-01 9.027188e-01 9.819228e-05 4.119200e-02 6.214281e-02 8.217452e-02 1.282825e-01 9.134051e-02 9.631956e-02 1.173978e-01 2.445740e-01 1.646079e-01 8.650576e-02 9.825155e-02 1.139013e-01 1.905309e-05
<GCONST> 4.348767e+01
<MIXTURE> 7 9.997348e-02
<MEAN> 39
 -7.650800e-01 1.485323e+01 -1.031205e+00 -2.614724e+00 -4.830337e+00 -5.150249e+00 -9.680388e+00 2.531416e+00 -4.063974e+00 -2.383508e-01 1.124037e+00 -3.242263e+00 8.205897e-01 -4.900735e-01 4.464451e-01 -9.827735e-02 1.225610e-01 -5.539866e-02 -3.908109e-02 -2.896254e-01 -3.820568e-01 -5.009949e-01 -1.173687e-01 -1.643259e-01 -6.390829e-02 2.870212e-02 1.105560e-01 -3.131700e-01 1.107759e-01 7.699982e-02 4.745816e-02 6.630002e-02 4.116411e-01 -6.277875e-02 1.181111e-01 8.426168e-03 7.608568e-02 2.501619e-01 -7.329866e-03
<VARIANCE> 39
 8.557703e+00 3.781379e+01 1.778574e+01 1.712163e+01 1.685853e+01 2.817833e+01 2.950637e+01 3.209623e+01 3.365242e+01 2.367308e+01 2.235290e+01 1.592055e+01 9.202241e-03 3.159638e-01 6.480904e-01 7.506796e-01 8.394235e-01 1.303767e+00 9.002370e-01 1.662567e+00 1.451069e+00 1.320800e+00 1.381876e+00 1.757201e+00 1.282436e+00 1.554895e-04 8.012599e-02 1.128044e-01 1.607696e-01 1.806106e-01 2.136623e-01 1.479005e-01 2.004213e-01 2.867517e-01 2.524840e-01 2.554210e-01 2.613002e-01 2.139574e-01 8.374114e-05
<GCONST> 6.612770e+01
<MIXTURE> 8 1.005070e-01
<MEAN> 39
 1.296202e+00 1.339855e+01 -2.600621e+00 -5.149912e-01 -4.854591e+00 -4.572633e+00 9.591885e-01 8.715597e-01 -2.777325e-01 1.128754e+00 -3.398655e+00 4.785562e+00 8.004044e-01 -8.808830e-01 -4.564435e-01 -8.735832e-01 -4.903561e-01 -9.247815e-01 -1.060682e+00 -1.460947e+00 -1.311309e+00 -1.285479e+00 -1.377594e+00 -1.331646e+00 -8.580610e-01 3.197135e-02 -1.270314e-01 -3.141955e-01 -1.005364e-01 -1.070039e-01 -4.752163e-02 -1.490529e-01 -1.917416e-01 -2.362422e-01 -1.835895e-01 -1.305360e-01 -3.964069e-02 -1.838761e-01 -3.907872e-03
<VARIANCE> 39
 1.445256e+01 2.832772e+01 1.366972e+01 1.251284e+01 1.028034e+01 1.236031e+01 1.555707e+01 2.555151e+01 1.684481e+01 2.550640e+01 1.914553e+01 1.840064e+01 7.135520e-03 5.192186e-01 4.906616e-01 5.400727e-01 8.798466e-01 1.045231e+00 1.118601e+00 1.050815e+00 1.094107e+00 1.272563e+00 1.577095e+00 1.646395e+00 1.912380e+00 3.371878e-04 9.493122e-02 9.056393e-02 1.108544e-01 1.497325e-01 2.026333e-01 1.617164e-01 1.866406e-01 1.982589e-01 2.109252e-01 2.043869e-01 2.588100e-01 2.457808e-01 3.941988e-05
<GCONST> 6.107158e+01
<MIXTURE> 9 4.247284e-02
<MEAN> 39
 -2.983424e+00 1.201464e+01 -5.129172e+00 -4.406993e+00 -8.858821e+00 -9.052657e+00 -5.971397e+00 -3.156784e+00 -5.554595e+00 -3.848664e+00 -5.501076e+00 -4.162911e+00 8.705444e-01 -7.589481e-01 -3.243661e-01 -1.483292e-01 3.148999e-01 -3.435975e-02 3.731071e-03 -4.020674e-01 -1.062205e+00 -1.031873e+00 -1.232374e+00 -1.420859e+00 -9.406423e-01 2.198702e-02 4.184594e-01 -6.710385e-02 5.028012e-01 4.062938e-01 5.979384e-01 6.015691e-01 4.251415e-01 6.668133e-01 8.063719e-01 8.071331e-01 7.713763e-01 7.759475e-01 -1.177770e-02
<VARIANCE> 39
 1.117899e+01 4.498727e+01 1.867686e+01 1.957786e+01 1.617130e+01 2.974642e+01 4.072665e+01 1.784055e+01 3.437559e+01 2.678401e+01 4.348174e+01 4.417161e+01 5.370778e-03 3.731186e-01 4.122716e-01 6.858101e-01 1.614594e+00 1.168739e+00 1.062579e+00 1.167695e+00 1.613005e+00 1.561220e+00 1.553112e+00 3.498925e+00 3.565754e+00 1.816562e-04 1.076782e-01 1.448889e-01 1.626410e-01 2.817964e-01 2.308446e-01 3.536874e-01 2.740932e-01 2.313330e-01 2.013148e-01 2.165660e-01 5.199711e-01 4.052213e-01 1.438726e-04
<GCONST> 7.355497e+01
<MIXTURE> 10 1.083086e-01
<MEAN> 39
 -6.088791e-01 1.625939e+01 2.002759e-01 -3.016274e+00 -3.937011e+00 -5.405250e+00 -9.426930e+00 9.523242e-02 -2.339253e+00 -3.191421e+00 6.550598e+00 -3.607468e+00 8.340385e-01 -1.434686e-01 4.379210e-01 -1.649025e-01 3.018189e-01 -5.323326e-02 1.003428e-01 -1.274897e-01 7.489178e-02 -3.899064e-01 -4.709416e-01 -1.165852e-01 -1.622011e-01 6.650772e-03 2.021855e-02 -1.205329e-01 5.711108e-02 -1.108886e-01 3.121371e-02 -3.797154e-02 2.236655e-03 4.158851e-02 1.544954e-01 6.260820e-02 -1.031437e-01 1.374546e-01 -6.303230e-04
<VARIANCE> 39
 3.086499e+00 1.930604e+01 7.550884e+00 1.645321e+01 1.594631e+01 7.298048e+00 8.990407e+00 1.338572e+01 1.958489e+01 2.660254e+01 9.154363e+00 9.262623e+00 4.700886e-03 1.552489e-01 1.885611e-01 1.570857e-01 3.602902e-01 4.008357e-01 4.212578e-01 5.071009e-01 3.644848e-01 5.405129e-01 4.796530e-01 5.159528e-01 6.958918e-01 1.075629e-04 1.979507e-02 3.614297e-02 3.353688e-02 6.202891e-02 6.973942e-02 6.561229e-02 7.015068e-02 5.655402e-02 9.403355e-02 1.042757e-01 8.169113e-02 1.156061e-01 1.313826e-05
<GCONST> 2.922675e+01
<MIXTURE> 11 5.572806e-02
<MEAN> 39
 -4.177894e-01 1.712609e+01 1.605534e+00 -2.815889e+00 -8.463658e+00 -3.227052e+00 -1.238210e+01 3.477530e+00 -1.892828e+00 -2.787039e+00 4.040978e+00 -5.077400e+00 7.923899e-01 -3.477121e-01 1.491510e-01 8.180685e-02 2.242228e-01 5.248634e-02 1.420296e-01 1.368038e-02 9.267912e-02 3.449446e-01 5.051984e-02 2.747375e-01 1.287721e-02 1.828354e-02 5.629609e-02 -6.920975e-02 -5.054729e-02 -6.323300e-03 7.062000e-02 -5.682912e-02 5.555462e-02 -2.399045e-01 -5.928659e-02 4.250465e-02 -1.142648e-02 3.326689e-02 -3.585926e-03
<VARIANCE> 39
 7.564865e+00 3.282699e+01 8.196608e+00 6.152900e+00 1.743425e+01 1.982480e+01 1.805885e+01 1.484043e+01 1.767773e+01 1.696111e+01 6.392520e+00 9.409561e+00 5.096074e-03 8.410792e-01 2.299029e-01 3.315986e-01 3.311830e-01 3.801745e-01 4.768716e-01 6.723522e-01 9.089258e-01 1.111526e+00 6.547856e-01 4.476821e-01 4.773589e-01 2.878518e-04 1.469438e-01 5.166048e-02 6.432004e-02 6.496865e-02 7.134803e-02 9.339061e-02 1.247855e-01 1.245301e-01 1.200599e-01 8.419507e-02 8.558378e-02 4.856612e-02 1.444525e-05
<GCONST> 4.024705e+01
<MIXTURE> 12 8.915517e-02
<MEAN> 39
 -1.229418e+00 1.255133e+01 -5.022058e+00 -1.581180e+00 -7.483357e+00 -7.243809e+00 -2.841078e+00 -2.412586e+00 -4.401205e+00 -1.481322e+00 -6.752213e+00 4.374913e+00 8.473011e-01 -6.953108e-01 -7.011706e-01 -7.879631e-01 -3.067347e-01 -9.209417e-01 -1.213280e+00 -1.569754e+00 -1.505531e+00 -1.196781e+00 -1.172292e+00 -1.034243e+00 -6.015053e-01 2.518658e-02 2.529592e-01 5.764436e-02 2.562619e-01 1.478638e-01 2.498704e-01 2.503766e-01 3.092888e-01 2.941984e-01 3.535751e-01 2.758505e-01 3.378835e-01 8.443157e-02 -6.938571e-03
<VARIANCE> 39
 1.137912e+01 2.660761e+01 1.280458e+01 1.581503e+01 1.051758e+01 1.388830e+01 1.658027e+01 2.533541e+01 1.612457e+01 2.269741e+01 1.410523e+01 1.622815e+01 5.688294e-03 3.515250e-01 4.366065e-01 7.023569e-01 8.903016e-01 8.927698e-01 9.016114e-01 7.521294e-01 1.259067e+00 9.454249e-01 1.386515e+00 1.474820e+00 1.739178e+00 2.124494e-04 5.622493e-02 6.995719e-02 7.164041e-02 1.196692e-01 1.184486e-01 1.344068e-01 1.858993e-01 1.607779e-01 1.843054e-01 2.157476e-01 1.980692e-01 2.324985e-01 2.964010e-05
<GCONST> 5.535563e+01
<STATE> 4
<NUMMIXES> 12
<MIXTURE> 1 8.401453e-02
<MEAN> 39
 -1.088750e+00 1.402910e+01 -2.522059e+00 -1.734889e+00 -7.069387e+00 -5.165548e+00 -6.653952e+00 -1.598331e+00 -5.442218e-01 -3.306176e+00 1.527453e+00 -5.793372e-02 8.748944e-01 1.145032e-01 4.087468e-01 7.912125e-02 3.037890e-01 3.181349e-01 3.068472e-01 2.094185e-01 9.836497e-02 5.069571e-01 2.900908e-01 2.339432e-01 5.963108e-02 9.124692e-03 5.921755e-02 -1.378104e-01 4.539723e-02 -1.142180e-01 1.725192e-01 -1.335557e-02 1.214139e-01 1.893779e-02 1.324366e-01 1.439963e-01 -1.985481e-02 -2.759713e-02 -3.339251e-03
<VARIANCE> 39
 1.727245e+01 3.360803e+01 3.675468e+01 2.128960e+01 2.489833e+01 3.425404e+01 4.719790e+01 3.844440e+01 4.607159e+01 6.373689e+01 6.428245e+01 7.394962e+01 6.627646e-03 3.460378e-01 7.155372e-01 9.459327e-01 1.067017e+00 1.337672e+00 1.454338e+00 1.556069e+00 1.597277e+00 1.276597e+00 1.659936e+00 1.587189e+00 1.620130e+00 8.826459e-05 5.587524e-02 1.098976e-01 1.775249e-01 1.729240e-01 2.161914e-01 2.207110e-01 2.359331e-01 2.954388e-01 2.627547e-01 2.577860e-01 2.880529e-01 2.656448e-01 2.008854e-05
<GCONST> 7.258032e+01
<MIXTURE> 2 5.715710e-02
<MEAN> 39
 -1.452250e+00 1.206254e+01 -2.762193e+00 5.339184e-01 -4.266784e+00 -4.224019e+00 -1.495446e+00 -6.574339e-01 -1.509087e+00 -7.573743e-01 -2.587094e+00 3.253118e+00 9.026423e-01 3.399390e-01 5.193488e-01 6.061587e-01 6.013228e-01 7.946135e-01 7.293780e-01 7.954226e-01 6.424497e-01 6.137965e-01 5.342572e-01 5.260234e-01 4.359342e-01 1.464315e-03 -9.921035e-02 -2.610388e-01 -2.566293e-01 -3.223742e-01 -3.056956e-01 -3.339903e-01 -2.108630e-01 -3.195610e-01 -2.494427e-01 -1.863015e-01 -1.944538e-01 -2.216984e-01 -1.339253e-03
<VARIANCE> 39
 9.781240e+00 4.252452e+01 8.398033e+00 1.391336e+01 1.541435e+01 2.340864e+01 1.464983e+01 2.257141e+01 2.072581e+01 1.627190e+01 2.421100e+01 2.750327e+01 8.291344e-03 8.679815e-02 1.428686e-01 1.931263e-01 3.858997e-01 3.580954e-01 4.795956e-01 5.547500e-01 4.670552e-01 4.030933e-01 4.729421e-01 4.966823e-01 5.705802e-01 3.754082e-05 1.900205e-02 3.426252e-02 4.481993e-02 7.088120e-02 7.595167e-02 1.170690e-01 1.151215e-01 8.571179e-02 1.011398e-01 7.987051e-02 9.925450e-02 7.921465e-02 3.730629e-06
<GCONST> 3.388711e+01
<MIXTURE> 3 1.563651e-01
<MEAN> 39
 -1.516900e+00 1.961780e+00 -9.762164e-01 -8.970375e-01 -1.083654e+00 -9.879394e-01 -1.270485e+00 -4.491339e-01 -8.957604e-01 -1.221831e+00 -6.398610e-01 -7.070047e-02 9.730999e-01 7.851146e-02 -2.661749e-02 -1.076361e-02 1.360076e-02 -4.261862e-03 -3.366029e-02 -1.199724e-02 -4.783231e-02 5.274531e-02 -3.479818e-02 -5.944860e-03 -4.364340e-02 -8.195509e-04 5.432705e-03 -9.297526e-03 -7.426704e-03 -3.254474e-02 -4.380495e-02 -2.750478e-02 -3.203903e-03 -5.843145e-04 -2.077089e-02 -1.417233e-02 -9.657983e-03 2.162855e-03 -8.723934e-04
<VARIANCE> 39
 2.743127e+00 3.591709e+00 4.352424e+00 6.296207e+00 5.605515e+00 6.409097e+00 1.067349e+01 7.120331e+00 6.869735e+00 9.056038e+00 1.354152e+01 9.453364e+00 8.178990e-04 9.831002e-02 1.935093e-01 2.772273e-01 3.266132e-01 3.907137e-01 3.739971e-01 5.206680e-01 4.922690e-01 4.314535e-01 4.128822e-01 3.731931e-01 3.730557e-01 3.754082e-05 1.194153e-02 1.950350e-02 3.043624e-02 3.658476e-02 5.174199e-02 5.229321e-02 5.777540e-02 5.067905e-02 5.090287e-02 5.661062e-02 5.758281e-02 5.480035e-02 3.730629e-06
<GCONST> 1.250826e+01
<MIXTURE> 4 1.166488e-01
<MEAN> 39
 7.286861e-01 1.353004e+01 -2.980203e+00 4.723217e-01 -4.959929e+00 -6.453139e+00 -6.318741e+00 1.500960e+00 -5.849669e+00 9.497603e-01 -5.676874e+00 1.240339e+00 8.858370e-01 1.380466e-02 -3.549473e-02 -9.773192e-02 -5.921145e-02 -2.649331e-02 -1.408348e-01 1.253145e-02 -1.707312e-01 4.281950e-02 -8.657055e-02 -9.067772e-02 -2.157618e-01 4.130398e-04 -3.843579e-02 -3.230960e-02 -2.466365e-02 -8.883047e-02 -5.249898e-02 -5.618396e-02 4.378318e-03 -5.190415e-02 5.679348e-02 -5.745266e-02 8.429135e-02 -8.387909e-02 -1.387672e-03
<VARIANCE> 39
 4.624459e+00 1.036705e+01 8.292754e+00 1.438469e+01 1.107513e+01 1.769964e+01 2.002018e+01 3.242310e+01 1.666366e+01 2.000295e+01 2.236774e+01 2.623120e+01 2.990289e-03 9.332921e-02 1.388051e-01 2.488066e-01 2.959257e-01 3.325174e-01 3.866763e-01 3.486498e-01 5.071027e-01 5.137315e-01 3.898452e-01 3.662650e-01 4.673891e-01 3.754082e-05 1.254823e-02 2.105590e-02 4.268670e-02 4.731746e-02 5.838367e-02 6.246525e-02 6.997067e-02 6.952830e-02 8.155338e-02 7.898077e-02 8.593404e-02 9.096501e-02 3.730629e-06
<GCONST> 2.637329e+01
<MIXTURE> 5 5.799922e-02
<MEAN> 39
 -1.890023e+00 1.077125e+01 -5.210883e+00 -1.588510e+00 -7.003747e+00 -7.509284e+00 -4.191349e+00 -3.250497e+00 -4.649325e+00 -2.499892e+00 -4.545355e+00 2.071555e+00 8.946835e-01 3.432135e-01 4.953442e-01 5.597702e-01 6.736760e-01 8.185229e-01 7.933208e-01 7.608540e-01 7.209731e-01 6.939468e-01 6.093501e-01 5.792367e-01 3.880802e-01 1.655180e-03 1.586046e-02 4.151594e-02 9.205724e-02 6.064533e-03 7.537446e-02 5.369079e-02 1.287368e-01 7.315431e-02 8.818749e-02 8.715691e-02 2.780260e-02 1.314958e-02 -1.534457e-03
<VARIANCE> 39
 1.024124e+01 2.789093e+01 8.247742e+00 1.582721e+01 1.162667e+01 1.927300e+01 1.722462e+01 2.570082e+01 1.906633e+01 1.725637e+01 2.304936e+01 3.218341e+01 8.553308e-03 6.477030e-02 1.720500e-01 1.985449e-01 2.904988e-01 3.389167e-01 4.016740e-01 4.120923e-01 4.004511e-01 4.650178e-01 4.400487e-01 5.120598e-01 4.754298e-01 3.754082e-05 1.340116e-02 1.917946e-02 3.070532e-02 4.110229e-02 5.605239e-02 6.646860e-02 7.038473e-02 4.874365e-02 7.259993e-02 6.395866e-02 8.509593e-02 7.435732e-02 3.730629e-06
<GCONST> 2.787430e+01
<MIXTURE> 6 7.941301e-02
<MEAN> 39
 -1.488941e+00 1.768055e+01 -2.461307e-01 -1.529666e+00 -3.035443e+00 -5.042940e+00 -1.030233e+01 5.463430e-01 -2.394691e+00 -2.309945e+00 4.901457e+00 -3.471847e+00 8.370847e-01 -7.576968e-03 2.263068e-02 -4.608132e-02 -1.707344e-01 7.589057e-02 -5.818246e-02 3.749143e-02 -8.200273e-02 9.682263e-02 -2.079305e-02 6.954489e-03 7.606368e-02 6.935730e-04 2.058020e-02 -3.296815e-02 2.932243e-02 -3.870187e-02 3.637541e-03 -2.103065e-02 2.691940e-02 2.262917e-02 1.102494e-02 6.229286e-03 4.725357e-03 1.130937e-02 -1.158921e-03
<VARIANCE> 39
 2.764946e+00 1.543919e+01 5.733983e+00 6.408731e+00 4.942027e+00 1.293077e+01 1.215924e+01 1.193505e+01 1.881189e+01 1.171159e+01 1.149400e+01 7.522231e+00 3.299327e-03 4.931372e-02 7.127685e-02 1.020214e-01 1.368455e-01 1.206131e-01 1.637558e-01 1.933855e-01 2.034177e-01 1.810772e-01 2.095961e-01 1.452838e-01 1.750281e-01 3.754082e-05 7.241186e-03 1.283141e-02 1.706074e-02 2.190612e-02 2.210794e-02 2.419829e-02 3.514389e-02 3.112822e-02 3.675897e-02 3.050081e-02 2.379243e-02 2.573907e-02 3.730629e-06
<GCONST> -1.222601e-01
<MIXTURE> 7 9.447418e-02
<MEAN> 39
 -2.081543e+00 1.341549e+01 -2.662291e+00 -1.346862e+00 -6.030250e+00 -7.077042e+00 -4.327955e+00 -1.995440e+00 -2.929531e+00 -3.019357e+00 -2.313479e+00 2.554743e+00 8.699960e-01 -2.832579e-03 5.976170e-02 -6.767564e-02 1.160978e-01 5.162796e-02 5.884514e-02 -8.050480e-02 -5.068880e-02 1.282046e-01 -7.363405e-02 -1.370738e-02 7.128839e-03 2.413637e-03 -2.707665e-02 -7.970013e-02 -5.258881e-02 -7.945423e-02 1.834896e-02 -4.310049e-02 -5.155066e-02 -6.991619e-02 -5.070705e-02 4.102398e-02 2.312437e-02 -1.339804e-01 -1.629423e-03
<VARIANCE> 39
 1.064936e+01 3.335674e+01 1.570120e+01 1.571280e+01 1.976901e+01 2.813919e+01 2.414842e+01 3.119312e+01 2.471347e+01 2.917665e+01 3.776525e+01 4.566690e+01 9.137798e-03 5.039840e-02 1.434118e-01 1.818437e-01 2.914107e-01 3.960546e-01 3.349064e-01 3.288012e-01 4.096712e-01 3.848808e-01 3.830840e-01 3.343064e-01 4.109755e-01 3.754082e-05 1.350687e-02 2.338992e-02 4.410320e-02 5.247479e-02 8.656505e-02 7.688811e-02 7.366602e-02 1.045988e-01 1.072467e-01 7.351180e-02 7.420785e-02 7.086547e-02 3.730629e-06
<GCONST> 3.276398e+01
<MIXTURE> 8 6.751652e-02
<MEAN> 39
 -1.677147e+00 9.952128e+00 -2.195576e+00 1.656779e-01 -3.486383e+00 -3.188894e+00 -2.383641e-01 -1.205171e-01 -9.959182e-01 -5.549458e-01 -1.645150e+00 3.344407e+00 9.067141e-01 -9.774338e-02 -3.608985e-01 -4.050280e-01 -3.616651e-01 -4.299395e-01 -4.247628e-01 -3.265064e-01 -4.404487e-01 -3.153880e-01 -2.920043e-01 -3.344020e-01 -2.338836e-01 9.313846e-04 -1.286165e-01 -2.399155e-01 -2.798331e-01 -3.245197e-01 -3.383374e-01 -3.626013e-01 -3.441981e-01 -3.527314e-01 -2.613871e-01 -2.662382e-01 -2.843109e-01 -2.851288e-01 -1.231356e-03
<VARIANCE> 39
 9.174144e+00 4.204975e+01 7.595589e+00 1.131566e+01 1.522403e+01 1.816390e+01 9.416757e+00 1.809847e+01 1.521748e+01 1.561122e+01 2.340167e+01 3.546914e+01 9.237373e-03 9.458676e-02 1.625475e-01 1.980247e-01 3.489461e-01 4.368970e-01 4.363807e-01 3.917051e-01 4.006307e-01 4.293915e-01 5.156985e-01 5.845608e-01 4.955594e-01 3.754082e-05 1.382832e-02 3.683900e-02 4.021420e-02 4.743822e-02 7.868836e-02 6.414987e-02 8.021898e-02 7.841190e-02 7.392699e-02 6.451921e-02 8.241981e-02 7.413206e-02 4.377006e-06
<GCONST> 3.007699e+01
<MIXTURE> 9 6.215996e-02
<MEAN> 39
 -2.566516e+00 7.621882e+00 -5.024062e+00 -2.595253e+00 -7.333992e+00 -7.630090e+00 -5.292047e+00 -4.384910e+00 -4.202829e+00 -3.781486e+00 -4.836194e+00 -8.699168e-02 9.089301e-01 1.903851e-01 2.244593e-01 2.964164e-01 2.115635e-01 3.101051e-01 3.232909e-01 3.572460e-01 3.300240e-01 3.522769e-01 1.520943e-01 3.349774e-01 2.087602e-01 9.913808e-04 1.517872e-01 2.505700e-01 3.184411e-01 2.626652e-01 3.796990e-01 3.993588e-01 4.479848e-01 4.442535e-01 3.509504e-01 3.196460e-01 2.801541e-01 2.142946e-01 -1.371903e-03
<VARIANCE> 39
 9.658085e+00 4.820175e+01 1.156223e+01 9.028292e+00 1.791317e+01 2.199470e+01 1.776198e+01 1.441321e+01 1.244743e+01 1.630537e+01 1.964615e+01 2.498063e+01 8.552575e-03 1.147112e-01 1.437003e-01 2.157621e-01 2.454985e-01 3.776694e-01 4.032696e-01 4.133227e-01 4.993747e-01 4.345706e-01 3.877720e-01 4.419210e-01 2.995571e-01 3.754082e-05 1.594653e-02 3.510243e-02 4.487034e-02 4.982110e-02 7.184202e-02 7.437702e-02 6.333692e-02 7.802530e-02 1.013584e-01 6.851588e-02 8.567089e-02 8.284705e-02 4.098355e-06
<GCONST> 2.978550e+01
<MIXTURE> 10 7.249130e-02
<MEAN> 39
 -2.085130e+00 1.150299e+01 -3.109341e+00 -2.651797e+00 -3.306829e+00 -7.134912e+00 -1.541496e+00 -1.793792e-01 -1.590227e+00 1.511420e+00 -3.431032e-02 6.089921e+00 8.954725e-01 2.409207e-02 -1.416085e-02 -9.030773e-03 -9.935731e-02 6.329086e-02 -1.406859e-02 1.327940e-01 -1.988446e-02 -5.700230e-04 -3.222679e-02 1.756174e-03 -7.920255e-04 -6.476039e-04 6.545794e-03 -1.048285e-02 -2.156083e-03 -1.988788e-02 -1.852187e-03 -2.815448e-02 -4.828364e-03 6.868222e-04 1.130995e-03 3.553392e-03 -9.102427e-03 -3.928104e-02 -7.105562e-04
<VARIANCE> 39
 9.061768e+00 1.282800e+01 1.103460e+01 8.721294e+00 1.514108e+01 2.093906e+01 1.687528e+01 1.185347e+01 5.042625e+01 3.688225e+01 5.664221e+01 3.228996e+01 7.077535e-03 3.273025e-02 8.209279e-02 8.536094e-02 1.544234e-01 1.327520e-01 1.352107e-01 1.689009e-01 1.265785e-01 1.206804e-01 1.396960e-01 1.324715e-01 1.724074e-01 3.754082e-05 5.014291e-03 1.218249e-02 1.248556e-02 1.937895e-02 1.762694e-02 1.814856e-02 2.429158e-02 2.166563e-02 2.097049e-02 2.464041e-02 2.081216e-02 3.595266e-02 3.730629e-06
<GCONST> 5.088234e+00
<MIXTURE> 11 6.767306e-02
<MEAN> 39
 -4.624900e+00 1.742483e+01 1.496454e+00 -3.086658e+00 -6.517107e+00 -4.828397e+00 -8.795628e+00 -1.165917e+00 8.325284e-01 -8.104931e+00 5.726977e+00 -3.458255e+00 9.065666e-01 -1.567837e-02 3.264440e-02 -3.469399e-02 -3.836000e-02 6.774289e-02 -9.488980e-02 4.751959e-02 1.391877e-02 7.251881e-03 8.647009e-02 -1.379589e-02 -2.584022e-02 1.036815e-03 1.503038e-02 -4.402021e-02 1.174370e-02 -2.407410e-02 2.735239e-02 -4.970683e-04 6.632801e-04 -1.416615e-02 1.441559e-02 4.755902e-02 -8.486131e-03 5.267783e-02 -1.316583e-03
<VARIANCE> 39
 9.153182e+00 3.395093e+01 1.025601e+01 9.149590e+00 9.560180e+00 1.645486e+01 1.201816e+01 1.809848e+01 7.132423e+00 1.173248e+01 1.105041e+01 8.355624e+00 4.367950e-03 6.400209e-02 1.144522e-01 9.993167e-02 9.225349e-02 1.552805e-01 1.555982e-01 1.140249e-01 2.011793e-01 2.287744e-01 1.846427e-01 1.449876e-01 1.485340e-01 3.754082e-05 1.225799e-02 2.621830e-02 1.843290e-02 2.045161e-02 3.526662e-02 3.128043e-02 1.955682e-02 3.677562e-02 5.010965e-02 3.958382e-02 2.005706e-02 3.330817e-02 3.730629e-06
<GCONST> 5.617857e+00
<MIXTURE> 12 8.407699e-02
<MEAN> 39
 -2.516287e+00 9.093811e+00 -5.090326e+00 -2.673120e+00 -7.460913e+00 -7.805209e+00 -5.191753e+00 -3.638108e+00 -4.250269e+00 -4.323476e+00 -4.937781e+00 4.011709e-01 8.981420e-01 -2.104805e-01 -4.317318e-01 -5.235472e-01 -5.358245e-01 -4.834800e-01 -6.836734e-01 -6.060785e-01 -6.296051e-01 -4.733705e-01 -5.114336e-01 -3.592046e-01 -4.682857e-01 1.024694e-03 7.762201e-02 1.492443e-01 1.809160e-01 1.350038e-01 2.227460e-01 2.155057e-01 2.649581e-01 2.614873e-01 2.196584e-01 1.592465e-01 1.310149e-01 1.317893e-01 -1.302552e-03
<VARIANCE> 39
 9.391199e+00 4.106375e+01 9.671186e+00 1.089067e+01 1.730910e+01 2.455651e+01 2.329012e+01 1.815090e+01 1.440605e+01 2.017913e+01 2.175872e+01 3.129640e+01 8.021498e-03 8.476500e-02 1.605155e-01 2.231612e-01 2.622775e-01 4.258490e-01 4.063213e-01 4.866524e-01 4.566931e-01 5.324142e-01 3.577238e-01 5.190299e-01 4.444529e-01 3.754082e-05 1.081437e-02 2.941802e-02 3.295366e-02 4.115576e-02 6.875546e-02 7.180588e-02 7.693468e-02 8.977171e-02 7.652546e-02 6.032742e-02 7.966742e-02 6.009373e-02 3.730629e-06
<GCONST> 2.988840e+01
<STATE> 5
<NUMMIXES> 12
<MIXTURE> 1 2.580602e-02
<MEAN> 39
 -4.043638e+00 8.967945e+00 -7.977119e+00 -3.464661e+00 -8.167213e+00 -8.003400e+00 -6.147728e-01 -7.048731e-01 7.494643e+00 7.219800e+00 1.046738e+01 1.632760e+01 9.300779e-01 6.546074e-01 6.837566e-01 9.680110e-01 1.070358e+00 9.756355e-01 8.735828e-01 5.219556e-01 4.496183e-01 1.682024e-01 1.441965e-01 9.732538e-02 -6.936120e-01 1.144219e-03 1.143081e-01 8.618933e-02 2.268937e-01 9.201091e-02 2.753728e-01 1.506958e-01 1.317213e-01 2.817828e-02 -1.290397e-01 1.693297e-01 -4.933969e-02 -6.072634e-02 -1.689185e-03
<VARIANCE> 39
 1.969957e+01 2.219650e+01 1.132581e+01 1.420438e+01 1.816721e+01 1.828722e+01 2.838971e+01 2.329461e+01 5.698540e+01 6.563493e+01 2.278180e+01 6.416572e+01 4.805600e-03 1.889987e-01 5.340906e-01 3.238193e-01 4.132552e-01 7.145816e-01 5.589461e-01 4.654690e-01 8.685210e-01 3.185853e-01 1.136650e+00 5.093544e-01 1.591627e+00 3.754082e-05 4.473114e-02 4.886033e-02 6.323443e-02 1.407755e-01 1.681153e-01 1.362786e-01 1.219323e-01 6.556730e-02 1.055223e-01 1.610058e-01 1.003805e-01 1.414279e-01 4.736832e-06
<GCONST> 4.772865e+01
<MIXTURE> 2 3.966319e-02
<MEAN> 39
 3.139430e-01 9.603850e+00 -6.157831e+00 -2.584293e+00 -8.661081e+00 -6.212242e+00 -3.873806e+00 -4.139577e+00 -4.196426e+00 -5.421726e+00 -6.808471e+00 -4.978720e-01 8.933718e-01 3.997572e-01 4.537147e-01 5.447642e-01 7.738625e-01 8.596843e-01 8.482754e-01 8.495944e-01 6.998294e-01 7.865906e-01 6.901394e-01 6.140344e-01 3.824177e-01 -3.338400e-03 1.249354e-01 1.073834e-01 2.612412e-01 2.233608e-01 3.965550e-01 1.534984e-01 2.632565e-01 3.045282e-01 2.739794e-01 3.245806e-01 2.583433e-01 1.260485e-01 -1.239890e-03
<VARIANCE> 39
 1.257868e+01 3.803494e+01 1.808301e+01 1.343976e+01 1.745490e+01 2.198407e+01 1.405164e+01 2.604368e+01 2.184926e+01 3.157518e+01 3.087490e+01 2.537568e+01 5.346802e-03 1.868847e-01 2.361802e-01 4.367346e-01 5.121097e-01 6.668527e-01 5.405818e-01 7.910550e-01 7.809159e-01 7.245824e-01 6.798308e-01 6.360979e-01 9.813942e-01 3.754082e-05 2.151174e-02 5.160418e-02 8.944999e-02 9.210989e-02 1.091464e-01 1.224250e-01 1.077552e-01 1.597793e-01 1.428727e-01 1.858366e-01 1.996810e-01 1.918876e-01 4.856920e-06
<GCONST> 4.656798e+01
<MIXTURE> 3 1.231725e-01
<MEAN> 39
 1.107762e+00 7.559430e+00 -1.586282e+00 1.062108e+00 -3.173570e+00 -1.950406e+00 -1.023134e-01 1.739016e-01 -1.366235e+00 -1.108791e+00 -2.325070e+00 5.402641e-01 9.175880e-01 4.330869e-01 2.417737e-01 4.752803e-01 5.936348e-01 5.847602e-01 3.344567e-01 5.571093e-01 2.542841e-01 6.445715e-01 7.479348e-01 4.157109e-01 2.651844e-01 -4.599004e-03 -7.142939e-02 -1.302449e-01 -1.920526e-01 -2.476567e-01 -1.218783e-01 -2.403122e-01 -2.894369e-01 -2.882597e-01 -1.481229e-01 -1.113597e-01 -7.042129e-02 -1.068816e-01 -1.016631e-03
<VARIANCE> 39
 9.583421e+00 3.594097e+01 9.596606e+00 1.103867e+01 1.452247e+01 1.444047e+01 1.399438e+01 1.894618e+01 1.651014e+01 2.116634e+01 2.048011e+01 1.926229e+01 2.970295e-03 2.154552e-01 4.278147e-01 4.892932e-01 5.134827e-01 9.236978e-01 8.522950e-01 8.262993e-01 1.238681e+00 8.708846e-01 7.981647e-01 7.619488e-01 8.148880e-01 3.754082e-05 3.773930e-02 6.819072e-02 9.032389e-02 1.021145e-01 1.651566e-01 1.176141e-01 1.464197e-01 1.697027e-01 1.601220e-01 1.955800e-01 1.561828e-01 1.622856e-01 3.730629e-06
<GCONST> 4.618878e+01
<MIXTURE> 4 8.448891e-02
<MEAN> 39
 1.161506e-02 1.312454e+01 -2.705545e+00 -5.214234e-01 -5.150434e+00 -5.541236e+00 -3.685675e+00 1.006827e+00 -1.376932e+00 -7.519806e-01 -4.928535e-01 1.304617e+00 8.787886e-01 5.972031e-03 -9.013830e-02 -1.357177e-01 -1.540563e-01 1.740928e-01 2.582427e-01 2.789586e-01 -2.480865e-01 4.844306e-01 3.822141e-01 3.895774e-01 5.239402e-02 5.941479e-03 -4.256336e-02 -1.640965e-01 -7.929975e-02 -2.505062e-01 -6.355081e-02 -4.383884e-02 -1.726073e-01 -2.542971e-01 -6.185626e-02 -1.148544e-01 -2.772490e-02 -1.938073e-01 -2.241610e-03
<VARIANCE> 39
 9.837430e+00 2.800537e+01 2.230434e+01 2.342057e+01 2.233566e+01 2.770313e+01 3.040241e+01 3.152217e+01 3.142284e+01 3.889740e+01 5.293450e+01 6.277913e+01 7.485576e-03 3.354945e-01 7.479736e-01 1.255223e+00 1.281858e+00 1.955161e+00 1.701764e+00 1.706494e+00 1.768684e+00 1.716268e+00 1.941068e+00 1.990527e+00 1.695871e+00 9.390234e-05 5.531979e-02 1.122924e-01 2.051738e-01 2.129517e-01 3.183994e-01 3.451078e-01 3.507175e-01 3.248038e-01 3.044325e-01 3.651288e-01 3.157617e-01 3.184859e-01 1.957327e-05
<GCONST> 7.378851e+01
<MIXTURE> 5 3.966319e-02
<MEAN> 39
 3.139430e-01 9.603850e+00 -6.157831e+00 -2.584293e+00 -8.661081e+00 -6.212242e+00 -3.873806e+00 -4.139577e+00 -4.196426e+00 -5.421726e+00 -6.808471e+00 -4.978720e-01 8.933718e-01 3.997572e-01 4.537147e-01 5.447642e-01 7.738625e-01 8.596843e-01 8.482754e-01 8.495944e-01 6.998294e-01 7.865906e-01 6.901394e-01 6.140344e-01 3.824177e-01 -3.338400e-03 1.249354e-01 1.073834e-01 2.612412e-01 2.233608e-01 3.965550e-01 1.534984e-01 2.632565e-01 3.045282e-01 2.739794e-01 3.245806e-01 2.583433e-01 1.260485e-01 -1.239890e-03
<VARIANCE> 39
 1.257868e+01 3.803494e+01 1.808301e+01 1.343976e+01 1.745490e+01 2.198407e+01 1.405164e+01 2.604368e+01 2.184926e+01 3.157518e+01 3.087490e+01 2.537568e+01 5.346802e-03 1.868847e-01 2.361802e-01 4.367346e-01 5.121097e-01 6.668527e-01 5.405818e-01 7.910550e-01 7.809159e-01 7.245824e-01 6.798308e-01 6.360979e-01 9.813942e-01 3.754082e-05 2.151174e-02 5.160418e-02 8.944999e-02 9.210989e-02 1.091464e-01 1.224250e-01 1.077552e-01 1.597793e-01 1.428727e-01 1.858366e-01 1.996810e-01 1.918876e-01 4.856920e-06
<GCONST> 4.656798e+01
<MIXTURE> 6 8.096746e-02
<MEAN> 39
 -1.449736e+00 1.684079e+01 1.444276e+00 -9.116611e-01 -8.520334e+00 -1.952563e+00 -1.339651e+01 1.558665e+00 -2.182077e-01 -5.445680e+00 4.654731e+00 -5.236230e+00 8.749426e-01 -4.543306e-02 1.006473e-02 1.325999e-01 -8.541287e-02 1.846751e-01 -2.175159e-01 1.906843e-01 4.024006e-02 2.994390e-01 6.726908e-02 1.359870e-01 -1.514129e-01 7.733419e-04 -8.206004e-03 -8.666661e-02 1.852694e-02 -1.164934e-01 1.285524e-01 -1.338792e-01 1.062585e-01 -9.265256e-02 3.794266e-02 3.073846e-03 -1.839427e-02 8.211818e-02 -1.373023e-03
<VARIANCE> 39
 1.247458e+01 2.257145e+01 1.112732e+01 1.982689e+01 1.861974e+01 2.575171e+01 2.354844e+01 2.225066e+01 3.547584e+01 1.762141e+01 1.906101e+01 1.808202e+01 4.231591e-03 8.784556e-02 1.869751e-01 4.329208e-01 4.765849e-01 4.694547e-01 7.092758e-01 7.762865e-01 9.003969e-01 1.004409e+00 6.856453e-01 6.564201e-01 5.698530e-01 3.754082e-05 1.856737e-02 3.556787e-02 6.100285e-02 7.783054e-02 9.558088e-02 1.432283e-01 1.422703e-01 1.573263e-01 2.288350e-01 1.158688e-01 1.252567e-01 8.515594e-02 3.730629e-06
<GCONST> 4.183909e+01
<MIXTURE> 7 1.603994e-01
<MEAN> 39
 2.907149e+00 1.623674e+01 -6.796900e+00 1.090701e+00 -5.914213e+00 -6.719858e+00 -1.843546e+00 -3.325629e+00 -5.941858e-01 -8.657587e-01 -4.822425e+00 2.613838e+00 8.607795e-01 5.881759e-02 7.231939e-02 -1.026825e-01 1.006007e-01 6.151239e-02 -9.433580e-02 9.412749e-02 -7.534497e-02 2.507148e-01 1.365410e-01 6.723440e-02 -1.382454e-01 -1.110658e-03 -4.627526e-02 -1.059813e-01 3.585211e-02 -1.630855e-01 9.274439e-03 -1.086567e-01 -8.995539e-03 6.353917e-02 -3.921373e-02 -8.927031e-02 9.962856e-03 -1.476955e-02 -9.660464e-04
<VARIANCE> 39
 9.980390e+00 1.921179e+01 1.446477e+01 1.329131e+01 1.762005e+01 1.928205e+01 1.808328e+01 2.458993e+01 1.843512e+01 3.592932e+01 3.692488e+01 5.067051e+01 5.464265e-03 1.456377e-01 2.293711e-01 4.011911e-01 4.073766e-01 4.738289e-01 7.868391e-01 8.532110e-01 7.348121e-01 6.034437e-01 7.817836e-01 7.199675e-01 9.206029e-01 3.754082e-05 2.442868e-02 3.947605e-02 6.669112e-02 8.491845e-02 8.151361e-02 1.368235e-01 1.764261e-01 1.133897e-01 1.383014e-01 1.389397e-01 1.246954e-01 1.762036e-01 3.730629e-06
<GCONST> 4.412708e+01
<MIXTURE> 8 6.898955e-02
<MEAN> 39
 2.301223e+00 1.261303e+01 -2.783736e+00 1.967648e+00 -4.194505e+00 -3.754150e+00 -1.248793e+00 -9.725405e-01 -1.430795e+00 1.204007e+00 -3.144723e+00 3.450222e+00 9.090807e-01 -3.171165e-01 -3.317597e-01 -5.329008e-01 -6.921055e-01 -5.207197e-01 -6.782297e-01 -3.655137e-01 -6.460117e-01 -3.839705e-01 -3.815470e-01 -2.988943e-01 -5.056607e-01 -1.826679e-05 -2.619647e-01 -3.105887e-01 -3.774402e-01 -5.145441e-01 -3.578477e-01 -4.902325e-01 -3.006634e-01 -3.901134e-01 -3.195403e-01 -4.235730e-01 -2.807717e-01 -3.099171e-01 -1.014403e-03
<VARIANCE> 39
 8.283401e+00 4.758922e+01 1.692213e+01 1.085326e+01 1.831568e+01 3.213605e+01 1.244973e+01 1.994124e+01 1.528321e+01 1.759154e+01 3.222668e+01 2.565116e+01 3.847767e-03 1.856923e-01 4.208378e-01 3.709647e-01 4.690112e-01 5.460516e-01 8.911937e-01 9.878944e-01 9.607518e-01 8.420285e-01 1.221955e+00 1.441200e+00 9.219421e-01 3.984752e-05 3.081848e-02 7.555793e-02 1.001766e-01 7.636588e-02 8.628663e-02 1.209512e-01 1.405812e-01 1.661444e-01 1.346580e-01 1.659177e-01 1.572793e-01 1.558812e-01 4.588926e-06
<GCONST> 4.756615e+01
<MIXTURE> 9 7.053863e-02
<MEAN> 39
 -4.971168e-01 7.800509e+00 -6.123859e+00 -3.197149e+00 -8.039889e+00 -7.782481e+00 -4.902060e+00 -4.606638e+00 -4.790538e+00 -4.839924e+00 -6.329957e+00 -4.018696e-01 9.027736e-01 -3.698125e-02 -1.000011e-01 -3.389132e-01 -3.161813e-01 -3.400095e-01 -1.653218e-01 -1.027343e-01 -3.163970e-01 -2.224367e-01 -2.586777e-01 -1.445359e-01 -3.286989e-01 -2.884940e-03 1.775824e-01 2.830999e-01 4.062901e-01 3.924537e-01 5.187337e-01 4.489769e-01 4.702573e-01 4.495008e-01 4.275212e-01 4.443267e-01 3.636428e-01 2.718474e-01 -1.113442e-03
<VARIANCE> 39
 1.513131e+01 4.380375e+01 1.964668e+01 1.283337e+01 1.907359e+01 2.482647e+01 1.546493e+01 1.600595e+01 2.241216e+01 2.820954e+01 3.679705e+01 4.284902e+01 5.814604e-03 1.365045e-01 2.114789e-01 3.563098e-01 4.434306e-01 4.548765e-01 5.556520e-01 6.106209e-01 7.032949e-01 4.560113e-01 5.427265e-01 8.698748e-01 5.389580e-01 3.754082e-05 2.308645e-02 4.214595e-02 7.406370e-02 8.907155e-02 1.081628e-01 7.354624e-02 1.177647e-01 1.258837e-01 1.100454e-01 1.096943e-01 1.613407e-01 1.548882e-01 3.730629e-06
<GCONST> 4.247874e+01
<MIXTURE> 10 8.096746e-02
<MEAN> 39
 -1.449736e+00 1.684079e+01 1.444276e+00 -9.116611e-01 -8.520334e+00 -1.952563e+00 -1.339651e+01 1.558665e+00 -2.182077e-01 -5.445680e+00 4.654731e+00 -5.236230e+00 8.749426e-01 -4.543306e-02 1.006473e-02 1.325999e-01 -8.541287e-02 1.846751e-01 -2.175159e-01 1.906843e-01 4.024006e-02 2.994390e-01 6.726908e-02 1.359870e-01 -1.514129e-01 7.733419e-04 -8.206004e-03 -8.666661e-02 1.852694e-02 -1.164934e-01 1.285524e-01 -1.338792e-01 1.062585e-01 -9.265256e-02 3.794266e-02 3.073846e-03 -1.839427e-02 8.211818e-02 -1.373023e-03
<VARIANCE> 39
 1.247458e+01 2.257145e+01 1.112732e+01 1.982689e+01 1.861974e+01 2.575171e+01 2.354844e+01 2.225066e+01 3.547584e+01 1.762141e+01 1.906101e+01 1.808202e+01 4.231591e-03 8.784556e-02 1.869751e-01 4.329208e-01 4.765849e-01 4.694547e-01 7.092758e-01 7.762865e-01 9.003969e-01 1.004409e+00 6.856453e-01 6.564201e-01 5.698530e-01 3.754082e-05 1.856737e-02 3.556787e-02 6.100285e-02 7.783054e-02 9.558088e-02 1.432283e-01 1.422703e-01 1.573263e-01 2.288350e-01 1.158688e-01 1.252567e-01 8.515594e-02 3.730629e-06
<GCONST> 4.183909e+01
<MIXTURE> 11 1.394299e-01
<MEAN> 39
 -1.320620e+00 1.574465e+01 2.064516e-01 -2.430152e+00 -2.781605e+00 -4.161546e+00 -9.368561e+00 -1.926264e+00 9.963183e-01 -5.670951e+00 6.401433e+00 -4.011433e+00 8.674361e-01 1.005248e-01 -6.410213e-02 5.898931e-02 -7.898093e-02 1.626611e-01 -1.141151e-01 7.772480e-03 1.684225e-01 8.038455e-02 1.877084e-01 -1.175522e-01 6.822533e-02 -2.674547e-03 2.030412e-02 -9.341954e-02 2.735961e-02 -2.036364e-02 -3.982675e-02 -1.591746e-02 4.251745e-02 6.825895e-02 -6.445860e-03 7.465041e-02 -8.449971e-02 4.999455e-02 -1.718122e-03
<VARIANCE> 39
 8.933084e+00 3.001151e+01 1.575292e+01 1.335515e+01 1.282018e+01 1.417841e+01 1.620195e+01 1.964211e+01 1.637157e+01 3.315871e+01 1.378270e+01 1.497111e+01 4.202840e-03 2.218154e-01 2.808338e-01 2.624917e-01 3.142436e-01 3.435409e-01 3.762810e-01 4.289463e-01 3.337905e-01 3.291945e-01 4.042076e-01 3.430484e-01 3.848715e-01 4.300757e-05 4.388358e-02 5.679513e-02 6.249040e-02 8.337004e-02 6.782705e-02 8.438321e-02 7.012162e-02 6.785417e-02 6.716000e-02 8.672216e-02 6.846123e-02 9.587292e-02 4.929539e-06
<GCONST> 3.222603e+01
<MIXTURE> 12 8.591190e-02
<MEAN> 39
 -1.971717e-01 9.589454e+00 -3.743394e+00 -1.228033e+00 -4.791260e+00 -6.242067e+00 -3.070430e+00 -2.003639e+00 -3.501292e+00 -7.963800e-01 -4.197424e+00 1.424161e+00 9.122343e-01 -3.518377e-01 -6.088107e-01 -8.074524e-01 -9.270679e-01 -9.611952e-01 -1.025860e+00 -7.761912e-01 -8.645261e-01 -7.215798e-01 -9.647356e-01 -8.018427e-01 -8.092790e-01 -1.752518e-03 2.852030e-02 1.653322e-02 3.073012e-02 -6.680308e-02 4.745900e-02 2.651124e-02 1.479571e-02 9.916601e-02 4.735991e-02 -6.566830e-02 9.652853e-02 -7.672273e-02 -1.617055e-03
<VARIANCE> 39
 1.216071e+01 4.386601e+01 1.309140e+01 1.434787e+01 1.853968e+01 2.326678e+01 2.127774e+01 2.909718e+01 2.643807e+01 2.293728e+01 3.530955e+01 3.148752e+01 4.430848e-03 1.773323e-01 2.270342e-01 3.305976e-01 6.191272e-01 5.619960e-01 5.779858e-01 5.989828e-01 7.236198e-01 6.852258e-01 6.820338e-01 1.299146e+00 7.734689e-01 3.754082e-05 1.631109e-02 4.323551e-02 8.125892e-02 8.853311e-02 1.102530e-01 9.802925e-02 1.611906e-01 1.832884e-01 1.097594e-01 1.467808e-01 1.539938e-01 1.169671e-01 3.730629e-06
<GCONST> 4.509970e+01
<STATE> 6
<NUMMIXES> 12
<MIXTURE> 1 6.195445e-03
<MEAN> 39
 -6.962195e+00 3.789650e+00 -5.314732e+00 -1.388167e+00 -5.846491e+00 -3.545632e+00 -2.628917e+00 -1.241504e+00 1.323310e+01 1.107672e+01 1.501097e+01 1.137880e+01 9.114213e-01 6.770583e-01 -9.916037e-02 -3.682549e-01 5.692682e-01 6.422017e-02 8.692586e-01 -7.716451e-01 3.465679e-01 1.702313e+00 2.599839e+00 6.584666e-01 -1.279436e+00 1.439942e-02 3.063771e-01 5.371474e-01 3.908238e-01 3.636330e-01 5.450375e-01 2.524229e-01 2.504006e-01 3.778818e-01 1.466160e-02 -2.147764e-01 -2.131228e-01 2.549886e-01 7.620747e-04
<VARIANCE> 39
 5.631381e+00 5.129216e+01 2.111079e+01 6.166156e+01 6.965281e+00 5.728832e+01 4.394308e+01 8.635432e+01 7.274747e+01 4.451995e+01 2.427521e+01 1.586668e+02 3.122780e-02 9.067345e-01 5.715854e-01 6.973456e-01 1.005752e+00 1.712966e+00 1.121260e+00 3.051428e-01 1.998164e+00 2.728020e-01 3.763963e-01 1.516436e+00 1.200443e+00 6.662030e-04 1.199089e-01 4.036066e-02 2.582889e-02 3.940924e-02 5.353490e-02 4.108661e-01 9.400252e-02 1.637986e-01 1.493149e-01 2.150298e-01 6.945218e-02 1.849129e-01 3.730629e-06
<GCONST> 6.126864e+01
<MIXTURE> 2 7.260989e-02
<MEAN> 39
 4.019611e+00 1.186379e+01 -5.041041e+00 2.376004e+00 3.890660e-01 -4.593997e+00 -5.170568e+00 7.219753e-01 2.035180e+00 5.415716e+00 -8.462736e-01 -1.741609e+00 8.191154e-01 7.093286e-01 -4.302860e-01 -8.136861e-01 4.346983e-01 7.751523e-01 -5.030207e-01 -1.240549e-01 1.385500e-01 4.832557e-01 3.310179e-01 -1.053962e+00 -5.108046e-02 -4.471872e-03 -7.972372e-02 3.097115e-02 1.016464e-01 -9.046882e-02 -5.097307e-02 -8.530953e-02 1.156610e-01 -3.383344e-02 -1.396591e-01 -4.426591e-01 -9.341685e-02 9.728585e-02 -5.525634e-04
<VARIANCE> 39
 1.043312e+01 2.973885e+01 1.955483e+01 1.288036e+01 2.344967e+01 3.275243e+01 3.038516e+01 1.546622e+01 1.432780e+01 4.380062e+01 5.278684e+01 3.109507e+01 2.805039e-03 3.212223e-01 8.908737e-01 1.455054e+00 9.944460e-01 1.122738e+00 1.867529e+00 1.376458e+00 1.764632e+00 1.725364e+00 3.021439e+00 1.778487e+00 1.914823e+00 9.473202e-05 4.943392e-02 1.261197e-01 2.830601e-01 2.121610e-01 1.751377e-01 2.779787e-01 1.851627e-01 2.987126e-01 1.941201e-01 3.197151e-01 2.708677e-01 2.983834e-01 6.907420e-06
<GCONST> 6.708174e+01
<MIXTURE> 3 2.432141e-01
<MEAN> 39
 8.013868e-01 6.953657e+00 -6.141418e-01 -5.190822e-01 -1.350810e+00 -3.404111e+00 -3.291097e+00 -7.586964e-01 -1.060804e+00 -1.201425e-01 1.925604e-01 1.244445e-01 8.929328e-01 2.865895e-01 -1.074488e-01 1.319512e-02 1.145160e-01 4.797461e-02 -3.530335e-02 -1.630958e-01 6.162774e-02 1.641967e-01 2.823184e-01 7.228378e-02 -2.472396e-02 -1.097963e-02 5.053911e-02 -2.944382e-02 1.702862e-02 -8.677798e-03 -2.655268e-02 2.212469e-02 4.185784e-02 2.081706e-02 -2.081464e-02 -2.230749e-02 -2.232071e-02 -5.066661e-02 -2.773268e-03
<VARIANCE> 39
 9.932838e+00 3.886355e+01 9.788086e+00 1.227162e+01 1.113034e+01 2.004471e+01 2.165106e+01 1.219498e+01 1.414289e+01 1.887662e+01 1.840594e+01 1.081592e+01 3.495889e-03 3.284236e-01 3.985096e-01 6.566854e-01 7.987645e-01 7.354050e-01 8.463598e-01 1.260230e+00 9.372466e-01 1.004179e+00 1.254587e+00 1.109390e+00 8.438166e-01 4.136449e-05 6.060636e-02 7.594370e-02 1.220174e-01 1.174821e-01 1.164884e-01 1.535729e-01 2.207251e-01 1.798508e-01 1.734604e-01 2.213491e-01 1.694626e-01 1.230489e-01 6.686239e-06
<GCONST> 4.979370e+01
<MIXTURE> 4 5.187438e-02
<MEAN> 39
 -1.919080e+00 1.420138e+01 -6.239181e+00 3.239309e+00 -6.581543e+00 -5.623821e+00 -1.790512e+00 -4.061143e+00 -1.111753e+00 -2.207225e+00 -2.230692e+00 7.049502e+00 9.050309e-01 -8.478504e-01 -2.674745e-01 -1.441765e-02 -1.340660e+00 7.827839e-01 -1.270292e+00 1.053781e+00 -4.236802e-01 6.530458e-01 -6.993145e-01 3.836942e-01 -9.388169e-01 -2.303451e-03 -7.830092e-02 -4.545636e-01 3.892377e-01 -8.985236e-01 4.036926e-01 -4.989203e-01 1.965058e-01 3.093212e-02 -2.149193e-01 2.725358e-02 -1.202830e-01 -3.063420e-01 -2.753534e-03
<VARIANCE> 39
 1.623174e+01 2.020272e+01 1.857749e+01 1.398771e+01 1.283149e+01 1.926157e+01 1.301204e+01 1.881343e+01 2.388586e+01 1.911992e+01 2.931213e+01 3.201950e+01 4.120107e-03 3.562867e-01 5.896858e-01 6.715926e-01 8.645549e-01 1.522061e+00 1.244038e+00 1.986735e+00 1.146829e+00 1.192576e+00 8.887051e-01 9.490211e-01 7.734185e-01 3.754082e-05 6.123035e-02 1.208956e-01 1.924200e-01 9.252779e-02 2.290135e-01 2.459274e-01 3.412285e-01 2.780708e-01 2.165189e-01 1.536848e-01 1.456715e-01 1.904567e-01 6.856951e-06
<GCONST> 5.739002e+01
<MIXTURE> 5 6.251532e-02
<MEAN> 39
 -2.196659e+00 1.084633e+01 -2.880694e+00 -1.351122e+00 -5.293314e+00 -4.242115e+00 3.379957e+00 6.758588e+00 1.542663e+01 1.467488e+01 1.028636e+01 4.614055e+00 9.477898e-01 1.991632e-01 2.638916e-01 1.519573e-01 -7.895727e-02 4.872915e-01 -8.618406e-02 2.191522e-01 2.374467e-01 -8.564732e-02 4.906594e-02 -1.955889e-01 -4.672671e-01 -2.955783e-03 -2.292174e-01 -2.834640e-01 -2.451152e-01 -3.828465e-01 -1.298208e-01 -2.018769e-01 -1.159147e-01 -2.799489e-01 -7.233469e-02 1.252567e-01 5.224795e-02 1.691785e-01 -3.337586e-03
<VARIANCE> 39
 1.600214e+01 1.914015e+01 1.413150e+01 2.154301e+01 1.927076e+01 1.004243e+01 3.581002e+01 3.122386e+01 3.288340e+01 3.414143e+01 4.511403e+01 1.216293e+02 1.851669e-03 6.962562e-01 7.998909e-01 1.070271e+00 1.051870e+00 9.693935e-01 8.443398e-01 7.947880e-01 9.916408e-01 1.380165e+00 6.245776e-01 1.094182e+00 1.170575e+00 6.382944e-05 8.142612e-02 1.838167e-01 1.775523e-01 1.531288e-01 1.761170e-01 2.191386e-01 2.080142e-01 2.282368e-01 2.706514e-01 2.678890e-01 1.675263e-01 1.972759e-01 1.063884e-05
<GCONST> 6.268762e+01
<MIXTURE> 6 6.919175e-02
<MEAN> 39
 -1.155767e+00 1.665438e+01 7.272493e-01 -3.262433e+00 -6.625638e+00 -3.901518e+00 -1.191386e+01 1.295581e+00 -8.543793e-02 -4.890945e+00 4.766822e+00 -6.052468e+00 8.542399e-01 -5.639105e-02 -2.650445e-01 2.221181e-01 -5.363982e-01 5.608745e-01 -3.279960e-01 8.268937e-02 -2.300481e-01 6.177205e-01 -1.002428e-02 1.098133e-01 1.778359e-01 -3.204694e-03 7.331806e-02 -2.466353e-01 1.766240e-01 -1.592182e-01 3.206400e-01 -3.399548e-02 2.749912e-01 -2.707747e-02 6.541453e-02 1.902814e-01 -1.841476e-01 2.117550e-01 -3.791086e-03
<VARIANCE> 39
 1.108353e+01 2.057507e+01 1.475401e+01 2.240265e+01 1.477823e+01 2.845216e+01 2.091781e+01 2.464626e+01 3.225637e+01 2.022618e+01 1.529120e+01 1.842173e+01 4.878071e-03 3.151511e-01 4.035059e-01 4.530292e-01 1.140121e+00 7.029856e-01 8.669319e-01 1.145296e+00 1.172119e+00 1.645331e+00 9.126934e-01 1.005365e+00 6.950495e-01 1.120254e-04 6.698355e-02 8.918819e-02 1.547678e-01 1.764621e-01 1.354842e-01 2.654629e-01 2.215892e-01 2.498373e-01 2.222625e-01 1.888417e-01 1.521101e-01 1.896698e-01 2.369883e-05
<GCONST> 5.771397e+01
<MIXTURE> 7 1.040570e-01
<MEAN> 39
 -1.087882e+00 1.492650e+01 -4.731758e+00 -1.911522e+00 -5.911055e+00 -7.644311e+00 -1.949034e+00 -5.759013e-01 -2.999625e+00 -4.849238e-01 -4.684063e+00 7.228588e-01 8.890541e-01 -1.001661e-01 -4.479228e-01 3.172360e-01 -7.307261e-01 7.411138e-01 -3.739773e-01 4.044042e-01 -9.383331e-02 5.146238e-01 -1.137367e-01 7.881922e-01 -8.364217e-01 -3.766907e-03 1.307529e-01 -2.966124e-01 2.454282e-01 -2.826859e-01 2.641838e-01 1.378530e-02 -1.787005e-01 -5.870993e-02 -1.138668e-01 -1.342478e-01 9.565096e-02 -1.938439e-01 -4.711116e-03
<VARIANCE> 39
 9.873384e+00 2.451492e+01 7.518278e+00 1.044124e+01 1.183274e+01 1.505154e+01 1.952254e+01 2.023887e+01 1.683876e+01 2.673838e+01 2.512584e+01 5.101695e+01 5.117560e-03 2.152887e-01 4.372523e-01 5.002542e-01 9.094780e-01 8.752630e-01 9.777328e-01 1.295234e+00 9.894854e-01 1.353680e+00 8.987275e-01 1.216654e+00 1.294756e+00 4.388351e-05 4.364726e-02 6.612527e-02 1.228046e-01 1.229801e-01 1.682457e-01 1.351856e-01 1.586799e-01 2.236309e-01 2.668778e-01 1.978749e-01 2.187789e-01 2.337694e-01 1.147901e-05
<GCONST> 5.378809e+01
<MIXTURE> 8 9.937890e-02
<MEAN> 39
 -1.116918e+00 1.281681e+01 -6.841974e+00 -4.010508e+00 -9.625507e+00 -1.134567e+01 -6.642927e+00 -4.961132e+00 -5.425078e+00 -3.711703e+00 -7.584014e+00 -1.567298e+00 8.762258e-01 -4.300190e-01 -4.413080e-01 -1.885702e-01 -1.115840e+00 -8.175091e-02 -7.149485e-01 9.200939e-02 -3.892220e-01 -1.696814e-01 -7.838737e-01 1.313234e-01 -6.221203e-01 -3.333330e-03 2.217380e-01 3.695035e-02 4.966331e-01 5.352687e-02 6.324883e-01 4.375056e-01 4.592662e-01 5.491977e-01 3.655137e-01 2.978104e-01 5.824506e-01 1.955329e-01 -3.622711e-03
<VARIANCE> 39
 1.032816e+01 3.681705e+01 1.440988e+01 2.112980e+01 1.473253e+01 2.570396e+01 2.171279e+01 3.313923e+01 2.203308e+01 2.239433e+01 3.087672e+01 4.799117e+01 4.130153e-03 3.335169e-01 5.006971e-01 7.263632e-01 1.032270e+00 9.833641e-01 1.309356e+00 1.458059e+00 1.222084e+00 1.144430e+00 1.235206e+00 1.280371e+00 1.021898e+00 6.029807e-05 7.032405e-02 9.840515e-02 1.646326e-01 2.007352e-01 1.576351e-01 1.927339e-01 2.707644e-01 1.800816e-01 2.227583e-01 3.272559e-01 2.162460e-01 2.046210e-01 1.001502e-05
<GCONST> 6.137037e+01
<MIXTURE> 9 7.364474e-02
<MEAN> 39
 -1.843457e+00 9.363881e+00 -7.132593e+00 -3.610613e+00 -7.161624e+00 -7.347038e+00 -4.787737e-01 -1.124578e+00 2.664624e+00 7.158164e+00 1.120097e+01 1.371158e+01 9.325157e-01 -3.939236e-01 -3.336153e-01 1.215772e-01 -5.829567e-01 2.794070e-01 -4.759639e-01 -1.277788e-01 -1.272817e-01 -6.677996e-02 4.140707e-01 6.525193e-02 4.950847e-01 -8.404334e-04 1.130953e-01 -7.467269e-02 2.146883e-01 -1.297143e-01 1.797938e-01 -5.679468e-02 -1.468371e-01 -4.507090e-02 -1.358649e-01 -3.623927e-01 -4.849094e-01 -4.871188e-01 -4.509521e-03
<VARIANCE> 39
 2.378349e+01 1.887670e+01 2.429513e+01 1.934331e+01 5.793841e+01 3.387861e+01 1.677807e+01 2.083677e+01 4.556709e+01 4.192333e+01 6.649167e+01 1.086453e+02 2.567317e-03 5.857681e-01 7.085276e-01 9.514976e-01 1.030228e+00 2.032973e+00 1.466442e+00 1.226782e+00 1.210182e+00 1.682826e+00 1.852606e+00 2.269967e+00 1.640557e+00 4.484870e-05 8.459952e-02 1.487620e-01 1.803434e-01 2.457880e-01 4.225915e-01 2.521149e-01 3.344133e-01 2.479866e-01 3.264275e-01 4.481525e-01 4.051438e-01 3.738585e-01 1.571183e-05
<GCONST> 7.378778e+01
<MIXTURE> 10 6.919175e-02
<MEAN> 39
 -1.155767e+00 1.665438e+01 7.272493e-01 -3.262433e+00 -6.625638e+00 -3.901518e+00 -1.191386e+01 1.295581e+00 -8.543793e-02 -4.890945e+00 4.766822e+00 -6.052468e+00 8.542399e-01 -5.639105e-02 -2.650445e-01 2.221181e-01 -5.363982e-01 5.608745e-01 -3.279960e-01 8.268937e-02 -2.300481e-01 6.177205e-01 -1.002428e-02 1.098133e-01 1.778359e-01 -3.204694e-03 7.331806e-02 -2.466353e-01 1.766240e-01 -1.592182e-01 3.206400e-01 -3.399548e-02 2.749912e-01 -2.707747e-02 6.541453e-02 1.902814e-01 -1.841476e-01 2.117550e-01 -3.791086e-03
<VARIANCE> 39
 1.108353e+01 2.057507e+01 1.475401e+01 2.240265e+01 1.477823e+01 2.845216e+01 2.091781e+01 2.464626e+01 3.225637e+01 2.022618e+01 1.529120e+01 1.842173e+01 4.878071e-03 3.151511e-01 4.035059e-01 4.530292e-01 1.140121e+00 7.029856e-01 8.669319e-01 1.145296e+00 1.172119e+00 1.645331e+00 9.126934e-01 1.005365e+00 6.950495e-01 1.120254e-04 6.698355e-02 8.918819e-02 1.547678e-01 1.764621e-01 1.354842e-01 2.654629e-01 2.215892e-01 2.498373e-01 2.222625e-01 1.888417e-01 1.521101e-01 1.896698e-01 2.369883e-05
<GCONST> 5.771397e+01
<MIXTURE> 11 8.400582e-02
<MEAN> 39
 -3.246031e+00 1.691224e+01 5.009362e-02 -3.788789e+00 -3.732100e+00 -5.899796e+00 -9.085219e+00 -3.566772e+00 1.979980e+00 -6.607918e+00 6.706011e+00 -3.701770e+00 8.995923e-01 -2.221234e-01 -5.926723e-01 2.453163e-01 -1.293359e+00 5.532867e-01 -4.126987e-01 5.957102e-01 3.152408e-02 1.807397e-01 6.856135e-01 -5.985565e-01 6.431903e-01 3.025869e-03 7.378585e-02 -3.202555e-01 2.734678e-01 -3.876932e-01 8.255952e-02 8.198965e-02 1.355989e-01 3.511246e-01 -8.341969e-02 2.180792e-01 -3.575608e-01 2.163122e-01 -2.595641e-03
<VARIANCE> 39
 8.395922e+00 2.180743e+01 1.510165e+01 9.622024e+00 1.444092e+01 1.282146e+01 1.408104e+01 1.784533e+01 2.332677e+01 2.429804e+01 1.497874e+01 1.125301e+01 3.297302e-03 1.806704e-01 2.867825e-01 3.010081e-01 3.803922e-01 4.647255e-01 5.821363e-01 3.817480e-01 6.349417e-01 5.554137e-01 6.283649e-01 8.416201e-01 5.295732e-01 5.894323e-05 2.020929e-02 5.249569e-02 1.050160e-01 8.489266e-02 5.038524e-02 5.518720e-02 1.258232e-01 1.155538e-01 9.566706e-02 1.162937e-01 6.545939e-02 6.984694e-02 6.085377e-06
<GCONST> 3.533432e+01
<MIXTURE> 12 6.412079e-02
<MEAN> 39
 6.851368e+00 1.647357e+01 -8.698483e+00 2.521335e+00 -6.724856e+00 -5.759477e+00 -3.181497e+00 -6.517172e+00 2.160319e+00 -4.409462e+00 -7.173486e+00 -7.399768e-01 7.888910e-01 4.063715e-01 -3.503877e-01 2.234200e-01 1.356203e-01 -1.603886e-02 -2.740958e-01 -1.901747e-01 -1.710503e-01 -3.469639e-01 -6.399856e-02 4.399448e-01 6.732780e-01 -5.140296e-03 -8.855138e-02 -2.013385e-01 3.184068e-01 -1.657480e-01 -8.317336e-02 -2.425593e-01 -1.773444e-01 1.255697e-01 -3.135153e-01 -1.596117e-01 1.848408e-01 7.085150e-02 -2.106651e-03
<VARIANCE> 39
 6.507275e+00 1.418785e+01 4.322594e+01 1.109657e+01 1.278125e+01 1.380724e+01 1.581443e+01 4.146335e+01 2.899195e+01 2.194057e+01 3.027298e+01 4.306363e+01 7.358035e-03 3.825721e-01 5.918008e-01 1.354651e+00 1.263235e+00 9.826009e-01 2.127134e+00 1.768947e+00 2.774459e+00 2.309370e+00 1.948365e+00 1.582081e+00 2.263472e+00 1.034260e-04 4.060202e-02 4.855511e-02 1.952968e-01 2.117227e-01 2.049368e-01 2.261482e-01 2.648190e-01 2.640757e-01 3.458923e-01 2.217396e-01 2.845319e-01 4.017568e-01 6.953047e-06
<GCONST> 6.597407e+01
<STATE> 7
<NUMMIXES> 7
<MIXTURE> 1 7.959320e-02
<MEAN> 39
 -2.774270e+00 1.470290e+01 -6.979298e+00 -4.075501e+00 -9.257763e+00 -1.070218e+01 -4.402572e+00 -4.192962e+00 -3.655173e+00 -5.212434e+00 -5.544697e+00 -9.509530e-02 8.361021e-01 -2.951225e-01 -3.625378e-01 1.644617e-01 -1.710501e+00 1.585675e+00 -6.916579e-03 2.000953e+00 1.126487e+00 1.482689e+00 4.706831e-01 1.596098e+00 -5.644788e-01 -1.008010e-02 3.519289e-01 -2.236453e-01 4.516219e-01 -1.231217e-01 6.967238e-01 6.670606e-01 5.260845e-01 7.830446e-01 4.615549e-01 5.603070e-01 2.818739e-01 -4.251330e-02 -3.268101e-03
<VARIANCE> 39
 1.099360e+01 3.232460e+01 7.219972e+00 1.930284e+01 7.890153e+00 2.670216e+01 2.376533e+01 2.441726e+01 1.869055e+01 2.279765e+01 1.714858e+01 2.815894e+01 3.832872e-03 1.001115e+00 1.204773e+00 1.061459e+00 2.545967e+00 1.519489e+00 1.710888e+00 2.325779e+00 2.090374e+00 2.054435e+00 2.417747e+00 2.644891e+00 2.204308e+00 1.664507e-04 1.039004e-01 1.995975e-01 2.325905e-01 1.457134e-01 1.394245e-01 2.720356e-01 4.123027e-01 3.014945e-01 4.350895e-01 5.344824e-01 2.599667e-01 3.603265e-01 2.513962e-05
<GCONST> 7.221999e+01
<MIXTURE> 2 1.034527e-01
<MEAN> 39
 -2.004640e+00 1.023180e+01 -5.488861e+00 -7.210286e+00 -6.710304e+00 -1.110346e+01 -4.947657e+00 -3.244314e+00 -5.235594e+00 -2.623601e+00 -5.598539e+00 -4.635415e+00 9.062403e-01 2.503471e-01 -5.013919e-01 1.225761e+00 -8.252570e-01 1.253100e+00 1.141572e-01 1.652030e-01 4.533820e-01 3.561733e-01 -1.119351e-01 1.096919e+00 -4.378604e-01 -1.078339e-02 4.037344e-01 6.914670e-02 7.681039e-01 5.933539e-01 5.270631e-01 8.087547e-01 1.390296e-01 3.447886e-01 2.549673e-01 2.663517e-01 4.221248e-01 4.333772e-01 -1.002025e-02
<VARIANCE> 39
 1.086770e+01 3.225395e+01 1.331515e+01 1.636932e+01 1.595126e+01 2.273964e+01 2.215837e+01 2.974631e+01 2.429592e+01 2.697996e+01 2.815192e+01 4.444423e+01 3.478389e-03 2.582356e-01 5.732868e-01 7.268178e-01 1.437461e+00 9.302700e-01 1.402224e+00 1.976032e+00 1.181462e+00 2.076008e+00 1.343784e+00 1.382340e+00 1.540463e+00 6.355835e-05 8.065289e-02 8.210898e-02 1.710467e-01 1.566319e-01 2.581861e-01 2.655001e-01 2.940072e-01 4.868463e-01 3.333515e-01 3.754202e-01 3.208362e-01 3.626878e-01 2.439406e-05
<GCONST> 6.651538e+01
<MIXTURE> 3 5.961989e-02
<MEAN> 39
 5.523245e+00 8.546849e+00 -9.119153e+00 1.291538e+00 -1.547029e+00 -9.248546e+00 -5.968817e+00 -1.269281e+00 2.481909e+00 -1.529918e+00 -5.221012e+00 8.295873e-01 8.018551e-01 4.399026e-01 -6.056761e-01 1.117497e+00 2.034181e-01 3.047924e-01 -6.824436e-01 1.459172e-01 2.041326e-01 -7.202707e-01 -3.099375e-01 2.278443e-01 7.145416e-01 -7.754625e-03 -1.007764e-01 1.865268e-01 8.159267e-01 1.061478e-01 9.443313e-02 5.469355e-01 1.198115e-01 -8.980461e-02 -2.348885e-01 1.940458e-01 3.872737e-01 -1.331660e-01 -5.737302e-03
<VARIANCE> 39
 1.714562e+01 4.435294e+01 1.385923e+01 3.730900e+01 4.977659e+01 2.797729e+01 2.904991e+01 6.563014e+01 3.056453e+01 4.738236e+01 6.669540e+01 4.833907e+01 9.166371e-03 4.960545e-01 8.253455e-01 1.987270e+00 2.607075e+00 1.623052e+00 2.252929e+00 2.480876e+00 1.307566e+00 1.630274e+00 2.021311e+00 3.505610e+00 2.044437e+00 2.628068e-04 6.269024e-02 1.287042e-01 3.188614e-01 3.626882e-01 3.531674e-01 4.068195e-01 2.551112e-01 5.580226e-01 4.191179e-01 4.062863e-01 4.378149e-01 4.259271e-01 1.440181e-05
<GCONST> 8.269421e+01
<MIXTURE> 4 1.630298e-01
<MEAN> 39
 -2.733514e+00 1.157654e+01 -5.099181e+00 -2.883771e+00 -3.730034e+00 -6.286711e+00 1.731904e+00 -2.258914e+00 2.505213e+00 3.560897e+00 5.134002e+00 8.820688e+00 9.109048e-01 -2.198532e-01 -1.004850e+00 6.895344e-01 -1.810010e+00 1.103282e+00 -1.091011e+00 1.502575e-02 3.633209e-03 -4.526179e-01 -1.494338e-01 -2.204130e-01 -1.081648e+00 -1.029982e-02 3.278773e-01 -3.711532e-01 4.909261e-01 -2.041934e-02 -4.958625e-02 1.742914e-01 -4.867682e-01 2.138575e-01 -3.099734e-01 -3.601222e-01 -4.645530e-01 -5.602326e-01 -8.791017e-03
<VARIANCE> 39
 1.511882e+01 2.790396e+01 2.377384e+01 1.497254e+01 2.516709e+01 2.671257e+01 1.965143e+01 2.847956e+01 4.527776e+01 6.636426e+01 6.421835e+01 9.313702e+01 4.668257e-03 6.722451e-01 8.015200e-01 1.207945e+00 1.787926e+00 2.061233e+00 1.864376e+00 2.021197e+00 1.764211e+00 1.138348e+00 1.983908e+00 2.401776e+00 1.979959e+00 8.666520e-05 9.484806e-02 1.840058e-01 3.092744e-01 2.296171e-01 3.426929e-01 2.204635e-01 3.573801e-01 2.800127e-01 2.844535e-01 4.390761e-01 3.486593e-01 5.403653e-01 3.880445e-05
<GCONST> 7.807742e+01
<MIXTURE> 5 2.043312e-01
<MEAN> 39
 9.288865e-01 9.756516e+00 -2.415102e+00 -6.544546e-01 -4.709760e+00 -5.869719e+00 -2.165806e+00 -2.121499e+00 -2.486658e+00 -2.158340e+00 -4.251613e+00 1.594808e+00 8.595590e-01 3.301668e-01 -2.929651e-01 3.521741e-01 -1.629786e-01 2.605502e-01 -8.738725e-02 -2.535572e-01 -2.059820e-01 -1.507420e-01 9.153521e-02 3.428047e-01 -3.985901e-01 -1.863281e-02 1.027790e-01 -1.149682e-01 2.407764e-01 1.386552e-01 2.085758e-01 1.971603e-01 -2.019585e-02 -9.201157e-02 -1.327272e-02 4.874405e-02 1.931332e-01 -8.170731e-02 -6.485403e-03
<VARIANCE> 39
 2.260168e+01 3.457638e+01 1.363913e+01 1.057341e+01 1.439171e+01 1.897399e+01 1.478941e+01 1.438342e+01 1.806176e+01 1.956557e+01 2.171243e+01 2.215679e+01 5.858130e-03 4.783787e-01 5.805168e-01 1.030920e+00 7.526970e-01 1.292487e+00 1.043675e+00 2.292125e+00 1.960232e+00 1.774781e+00 1.161574e+00 1.473420e+00 1.698012e+00 7.660393e-05 1.255879e-01 9.483155e-02 1.164590e-01 8.732144e-02 1.566434e-01 1.728833e-01 2.948871e-01 2.589512e-01 3.334490e-01 2.237412e-01 2.929173e-01 2.457653e-01 2.119470e-05
<GCONST> 6.242522e+01
<MIXTURE> 6 1.756603e-01
<MEAN> 39
 -2.413329e+00 1.627753e+01 5.561424e-01 -5.940879e+00 -3.239194e+00 -7.096972e+00 -9.131484e+00 -8.632035e-01 2.137857e+00 -4.322464e+00 4.243604e+00 -3.598026e+00 8.763291e-01 -1.154728e-01 -1.169687e+00 1.030060e+00 -1.897776e+00 9.704147e-01 -4.390347e-01 6.561301e-01 2.268593e-01 4.782708e-01 7.781610e-01 -6.185411e-01 8.976222e-01 -3.552044e-03 2.579677e-01 -4.466988e-01 3.369475e-01 3.200677e-02 -7.712781e-02 5.471364e-01 1.524072e-01 3.417072e-01 -1.478554e-01 1.805644e-01 -2.905142e-01 1.226292e-01 -6.370462e-03
<VARIANCE> 39
 1.187316e+01 2.254062e+01 1.401920e+01 1.576224e+01 1.739488e+01 1.910331e+01 1.845008e+01 2.301289e+01 2.656864e+01 2.098668e+01 2.230156e+01 1.533014e+01 5.114220e-03 2.478617e-01 5.163634e-01 7.025225e-01 7.889335e-01 9.255676e-01 1.005399e+00 1.291296e+00 1.628713e+00 1.316807e+00 1.504687e+00 1.028782e+00 7.571024e-01 1.240783e-04 7.953878e-02 1.262742e-01 1.228668e-01 2.459699e-01 1.544980e-01 1.451492e-01 1.606158e-01 1.887197e-01 2.666514e-01 1.484468e-01 2.123592e-01 1.662262e-01 3.259215e-05
<GCONST> 5.857069e+01
<MIXTURE> 7 2.143133e-01
<MEAN> 39
 -7.788716e-01 1.381448e+01 1.460858e+00 -1.399131e+00 -3.935862e+00 -5.077645e+00 -9.499251e+00 -2.942030e-01 -7.357940e-01 -2.569428e+00 4.367805e+00 -3.042280e+00 8.448325e-01 4.670230e-01 -3.275030e-01 2.006498e-01 -2.223562e-01 4.314582e-01 2.029655e-01 6.487835e-01 6.466239e-02 1.781574e-01 1.859350e-02 -2.825561e-01 -2.058213e-01 -1.913401e-02 2.098757e-01 -1.601395e-01 1.972098e-02 1.340579e-01 2.369705e-01 2.689226e-01 4.457564e-01 5.781864e-02 -3.294405e-02 2.568618e-02 -2.892430e-01 -7.393294e-03 -6.851732e-03
<VARIANCE> 39
 9.259299e+00 3.066078e+01 1.152411e+01 2.334884e+01 1.451144e+01 2.317242e+01 3.010234e+01 1.654865e+01 3.211639e+01 3.357436e+01 1.477233e+01 1.754190e+01 5.088907e-03 3.389885e-01 4.667495e-01 8.509505e-01 6.991246e-01 9.448855e-01 1.004370e+00 1.037048e+00 1.289165e+00 1.540992e+00 1.866568e+00 8.677627e-01 1.405038e+00 9.279282e-05 5.253240e-02 7.459074e-02 1.397602e-01 1.490119e-01 1.734551e-01 1.411860e-01 3.455989e-01 1.835547e-01 2.588388e-01 2.663555e-01 1.898974e-01 2.172373e-01 2.841282e-05
<GCONST> 5.984195e+01
<STATE> 8
<NUMMIXES> 7
<MIXTURE> 1 1.671156e-01
<MEAN> 39
 -2.651748e+00 1.268603e+01 -4.385992e+00 -7.144054e+00 -1.609509e+00 -1.240451e+01 1.204700e+00 -2.785363e+00 -1.244764e+00 -1.706433e+00 -2.969437e+00 -3.412761e-01 8.636595e-01 5.224726e-01 -1.559342e+00 1.985636e+00 -1.987689e+00 1.847848e+00 5.081057e-01 5.304209e-01 1.744325e+00 2.713963e-01 3.666198e-01 7.256612e-01 -9.201075e-01 -1.787113e-02 3.351291e-01 -3.877671e-01 4.934589e-01 6.510456e-01 -3.052269e-01 1.150055e+00 -4.688476e-01 3.045681e-01 -1.311427e-01 -2.006504e-02 1.261456e-01 1.835765e-01 -8.260634e-03
<VARIANCE> 39
 1.451200e+01 3.111699e+01 1.057848e+01 1.670627e+01 2.185133e+01 2.676156e+01 2.161016e+01 3.095683e+01 2.358047e+01 2.237003e+01 2.969266e+01 3.763604e+01 5.899863e-03 7.659539e-01 1.181319e+00 2.086169e+00 2.429737e+00 2.298276e+00 2.457386e+00 3.522834e+00 3.232960e+00 3.265415e+00 3.383228e+00 1.483834e+00 2.135150e+00 2.301242e-04 1.730714e-01 2.688076e-01 1.737718e-01 3.790586e-01 5.830286e-01 2.703556e-01 4.165231e-01 3.700214e-01 3.712945e-01 5.111243e-01 3.185905e-01 3.686454e-01 8.055526e-05
<GCONST> 8.212555e+01
<MIXTURE> 2 1.921958e-01
<MEAN> 39
 4.163315e+00 9.729328e+00 -3.007778e+00 3.265151e-03 -3.008862e+00 -6.835920e+00 -4.811142e+00 -3.704270e+00 -3.065227e+00 -2.005687e+00 -2.905722e+00 1.747765e+00 8.182683e-01 4.564750e-01 -3.230482e-01 1.325805e+00 2.829150e-01 6.336038e-01 6.056782e-01 -4.842373e-02 -3.374823e-01 -2.906396e-01 2.281111e-01 6.819319e-01 -2.859499e-01 -2.394413e-02 -1.607937e-01 3.331963e-02 4.287800e-01 3.136675e-01 1.236609e-01 3.543137e-01 1.804703e-01 1.110568e-01 1.862164e-01 1.308228e-01 8.635122e-02 -1.145923e-01 -1.021690e-02
<VARIANCE> 39
 1.742964e+01 3.828367e+01 2.071577e+01 2.474082e+01 2.607858e+01 2.002292e+01 2.767047e+01 3.511783e+01 2.829222e+01 2.804393e+01 3.428369e+01 2.533753e+01 6.760871e-03 8.453004e-01 8.196576e-01 1.643398e+00 1.381707e+00 1.460267e+00 1.342258e+00 2.663509e+00 2.901506e+00 1.579881e+00 2.271133e+00 2.566352e+00 2.596831e+00 1.041979e-04 8.832295e-02 1.533583e-01 1.890137e-01 1.821856e-01 2.416469e-01 3.349089e-01 2.509632e-01 4.384979e-01 2.722659e-01 3.027597e-01 3.628389e-01 3.021384e-01 3.498923e-05
<GCONST> 7.582137e+01
<MIXTURE> 3 2.209487e-01
<MEAN> 39
 2.929165e-01 1.102083e+01 4.377165e-01 -2.111319e+00 -2.958885e+00 -3.700931e+00 -5.331063e+00 6.344676e-01 -8.332321e-01 -1.267479e+00 1.829758e+00 -2.149191e+00 8.017077e-01 1.065981e+00 -3.352508e-01 6.360973e-02 3.040132e-01 8.351690e-01 5.181311e-01 1.054775e+00 1.981972e-01 3.762379e-01 6.477392e-01 -3.538648e-01 -2.740669e-01 -2.709725e-02 7.308438e-02 -1.124041e-01 3.990580e-02 4.142871e-01 2.527022e-01 1.791404e-01 1.692774e-01 -1.211988e-01 -3.689792e-02 -7.118295e-03 -1.127417e-01 4.706337e-02 -5.881536e-03
<VARIANCE> 39
 1.131112e+01 4.074792e+01 1.934966e+01 1.901555e+01 1.190419e+01 1.991290e+01 3.334094e+01 1.569390e+01 2.428617e+01 2.543005e+01 2.959908e+01 1.624375e+01 7.787651e-03 6.434184e-01 7.650345e-01 1.236012e+00 8.192796e-01 1.221665e+00 1.348246e+00 2.177934e+00 1.436880e+00 1.950557e+00 1.733580e+00 2.042544e+00 2.042772e+00 3.691076e-04 9.941579e-02 8.879932e-02 1.416902e-01 1.404544e-01 1.347244e-01 1.723280e-01 2.386064e-01 2.526150e-01 3.713337e-01 2.338004e-01 3.276672e-01 2.381388e-01 4.608634e-05
<GCONST> 6.868065e+01
<MIXTURE> 4 9.930264e-02
<MEAN> 39
 -2.900170e+00 9.459474e+00 -5.886118e+00 -5.458184e+00 -4.663517e+00 -8.253983e+00 -2.685966e-01 -1.022064e+00 5.667316e+00 9.295065e+00 8.896886e+00 1.270881e+01 8.945876e-01 8.632954e-01 -8.216172e-01 1.292655e+00 -5.053775e-01 7.807480e-01 -1.521933e-01 -3.658165e-01 3.698679e-01 -1.097623e+00 -1.025158e+00 -2.000555e+00 -2.352942e+00 -3.154690e-02 4.227190e-01 -3.681169e-02 4.953108e-01 6.757776e-01 1.883530e-01 6.393979e-01 5.892737e-02 7.802489e-02 -4.183494e-01 -6.600834e-01 -5.081859e-01 -7.567195e-01 -1.707882e-02
<VARIANCE> 39
 1.951999e+01 2.692056e+01 2.475796e+01 1.784192e+01 3.307935e+01 2.715648e+01 2.759063e+01 3.903626e+01 6.548876e+01 6.509383e+01 3.406539e+01 8.284145e+01 4.933739e-03 1.075571e+00 1.047802e+00 2.141336e+00 1.437452e+00 2.311205e+00 1.129838e+00 2.176565e+00 2.065666e+00 1.570330e+00 3.802453e+00 3.795325e+00 4.130282e+00 2.508230e-04 2.575523e-01 2.598749e-01 3.390910e-01 3.213041e-01 4.734396e-01 3.799270e-01 4.337886e-01 4.484491e-01 3.961415e-01 5.551498e-01 3.805295e-01 6.504482e-01 1.201953e-04
<GCONST> 8.855036e+01
<MIXTURE> 5 1.251755e-01
<MEAN> 39
 -3.052157e+00 1.104800e+01 -6.596426e-01 -6.205453e+00 -5.874845e+00 -7.004570e+00 -8.619911e+00 -1.810725e+00 -2.196860e+00 -5.337332e+00 3.480895e-01 -7.463178e+00 8.707939e-01 5.979716e-01 -3.733388e-01 1.187614e+00 3.890273e-01 1.659685e+00 1.300888e+00 6.948068e-01 3.850432e-02 3.881368e-01 -3.604566e-01 4.880241e-01 2.019488e-01 -2.757732e-02 1.953170e-01 1.000105e-02 2.960052e-01 6.765895e-01 4.995561e-01 6.452824e-01 3.801492e-01 1.155970e-01 -9.455326e-03 2.652255e-01 -9.219008e-02 5.660615e-01 -1.209661e-02
<VARIANCE> 39
 9.667196e+00 2.628132e+01 2.098279e+01 3.052499e+01 1.702050e+01 3.112939e+01 2.835089e+01 2.344389e+01 3.072902e+01 2.716443e+01 3.699785e+01 2.072579e+01 3.734086e-03 6.530073e-01 5.321110e-01 1.431924e+00 1.085278e+00 1.602083e+00 1.697335e+00 2.814138e+00 1.733294e+00 2.280779e+00 3.085667e+00 3.147195e+00 2.790894e+00 1.361632e-04 1.388668e-01 8.410837e-02 1.507264e-01 3.297695e-01 1.587030e-01 2.885119e-01 4.148277e-01 3.744958e-01 4.418141e-01 3.719760e-01 3.857648e-01 2.639388e-01 4.586670e-05
<GCONST> 7.494185e+01
<MIXTURE> 6 9.607282e-02
<MEAN> 39
 -2.742959e+00 1.222516e+01 1.113610e+00 -9.064978e+00 -1.897465e+00 -7.360339e+00 -8.536103e+00 1.962517e+00 2.727786e+00 3.188916e-01 4.000682e+00 -1.982461e+00 8.997222e-01 -1.451945e-02 -2.302044e+00 4.635070e-01 -2.404865e+00 4.613488e-01 1.016733e+00 1.240072e+00 1.258143e+00 -2.566516e-01 8.925824e-01 -1.272340e+00 7.152526e-01 3.224960e-03 2.066595e-01 -6.164920e-01 5.485338e-02 2.778384e-01 -5.309196e-01 7.890482e-01 3.099093e-01 -8.242720e-02 -3.211127e-01 -1.985085e-01 -5.827202e-01 -1.613502e-01 -3.641268e-03
<VARIANCE> 39
 7.989918e+00 2.103826e+01 1.912631e+01 1.884941e+01 1.636457e+01 1.624126e+01 2.543017e+01 3.604756e+01 2.529079e+01 1.988882e+01 2.509449e+01 1.447281e+01 4.974321e-03 3.266551e-01 8.849606e-01 1.550191e+00 1.008331e+00 1.120982e+00 1.937763e+00 2.018273e+00 1.562402e+00 2.942867e+00 1.393186e+00 2.480952e+00 8.139700e-01 1.788900e-04 4.413436e-02 1.304681e-01 1.190777e-01 2.269620e-01 1.699481e-01 3.360397e-01 2.994013e-01 5.001460e-01 3.051250e-01 2.955101e-01 3.864330e-01 2.037024e-01 1.564134e-05
<GCONST> 6.697635e+01
<MIXTURE> 7 9.918768e-02
<MEAN> 39
 -2.472910e+00 1.566425e+01 2.663309e+00 -9.358153e+00 -2.367589e+00 -7.563846e+00 -8.345472e+00 2.139780e-02 1.783234e+00 -3.922949e+00 4.119814e+00 -2.080331e+00 8.643339e-01 8.929191e-01 -1.896960e+00 1.879670e+00 -9.604114e-01 4.770435e-01 1.134298e+00 8.561980e-01 8.313227e-01 7.899301e-01 8.189498e-01 -1.084478e+00 9.345850e-01 -2.503897e-02 2.344141e-01 -1.602525e-01 3.480363e-02 1.155201e+00 5.107332e-02 7.757732e-01 3.356568e-01 1.288947e-01 -2.523483e-01 -1.695663e-01 -9.285530e-02 -1.161162e-01 -1.650389e-02
<VARIANCE> 39
 7.577520e+00 2.197654e+01 1.385353e+01 1.298708e+01 1.356478e+01 1.185908e+01 1.404354e+01 1.772398e+01 2.435812e+01 1.916394e+01 1.189205e+01 1.498033e+01 3.469243e-03 3.527346e-01 8.359156e-01 7.311717e-01 1.508536e+00 1.098418e+00 1.162327e+00 1.520880e+00 1.929600e+00 1.712775e+00 1.271418e+00 1.580390e+00 1.800315e+00 1.192022e-04 9.634290e-02 2.050358e-01 1.563270e-01 1.475130e-01 2.306882e-01 1.500011e-01 2.433600e-01 2.417363e-01 2.815726e-01 2.636032e-01 2.920365e-01 2.256011e-01 5.185473e-05
<GCONST> 6.215546e+01
<STATE> 9
<NUMMIXES> 7
<MIXTURE> 1 7.947268e-02
<MEAN> 39
 -2.074784e+00 1.117920e+01 -5.476615e+00 -1.200685e+01 -5.321832e-01 -5.209393e+00 6.695757e+00 9.832911e+00 6.494469e+00 4.495510e+00 1.812164e+00 -3.219620e+00 7.715148e-01 2.132248e-01 -2.668662e+00 8.456825e-01 -1.228671e+00 2.143920e+00 3.860428e+00 2.259045e+00 1.471211e+00 -4.945616e-02 -1.256815e+00 -3.319906e-02 -2.526401e-01 -4.073182e-02 5.953704e-03 -4.711054e-01 1.743688e-01 9.308029e-01 -1.750696e-01 8.998140e-01 -5.875868e-01 -1.077270e+00 -8.488560e-01 -7.470924e-01 -1.415740e-01 7.386962e-01 -7.181150e-03
<VARIANCE> 39
 1.076828e+01 2.304924e+01 2.622089e+01 2.885328e+01 2.484669e+01 2.182722e+01 6.480162e+01 1.714490e+01 5.052499e+01 5.120019e+01 3.510546e+01 5.105297e+01 3.575332e-03 1.148840e+00 2.928565e+00 2.459370e+00 1.856647e+00 3.182185e+00 3.593349e+00 3.523834e+00 5.699594e+00 1.072664e+01 1.019446e+01 7.491073e+00 4.182317e+00 5.678316e-04 2.532655e-01 4.281037e-01 4.091510e-01 5.376550e-01 5.622984e-01 4.796311e-01 8.452961e-01 6.934394e-01 1.276712e+00 8.874520e-01 6.466821e-01 9.921862e-01 1.434602e-04
<GCONST> 1.009300e+02
<MIXTURE> 2 9.547310e-02
<MEAN> 39
 1.651848e+00 1.025060e+01 -2.518806e+00 -5.488231e+00 -3.460152e+00 -1.010229e+01 -1.291531e+00 -2.123918e+00 -1.167540e+00 3.084204e+00 1.898891e+00 3.253459e+00 8.548040e-01 9.007348e-01 -7.789624e-01 2.329439e+00 1.252663e+00 1.399679e+00 1.208789e+00 -2.447440e-01 4.256749e-01 -1.204135e+00 -6.559519e-01 -8.433350e-01 -1.740251e+00 -6.224425e-02 -5.052389e-01 -2.058514e-01 2.192448e-01 1.073959e+00 3.684353e-01 1.100340e+00 2.542713e-01 2.925298e-01 5.891896e-02 7.128201e-02 1.167669e-01 2.223123e-01 -3.131166e-02
<VARIANCE> 39
 8.625115e+00 2.394525e+01 1.215034e+01 2.248565e+01 1.701633e+01 2.064748e+01 1.639313e+01 3.066423e+01 3.792919e+01 4.833335e+01 3.560397e+01 7.279669e+01 5.106351e-03 1.361097e+00 8.020058e-01 1.604216e+00 1.129091e+00 1.886138e+00 1.688735e+00 2.999641e+00 3.427680e+00 3.074340e+00 4.884627e+00 5.824501e+00 5.371366e+00 4.513981e-04 1.565885e-01 2.122309e-01 2.075671e-01 4.392992e-01 3.767903e-01 2.910313e-01 4.105248e-01 6.091779e-01 3.255212e-01 5.027002e-01 3.855504e-01 4.133146e-01 8.981707e-05
<GCONST> 8.505618e+01
<MIXTURE> 3 1.943694e-01
<MEAN> 39
 2.858748e+00 1.059589e+01 1.282902e+00 2.389384e-01 -3.435835e+00 -4.787448e+00 -5.169379e+00 -3.635906e+00 -3.270314e+00 -2.612484e+00 -3.889740e-01 -9.884253e-01 7.803608e-01 2.957575e-01 -3.713043e-01 1.602221e+00 1.141026e+00 1.075821e+00 1.150038e+00 4.819646e-01 -2.779859e-01 -1.656846e-01 4.844998e-01 2.787953e-01 1.482770e-02 -4.592085e-02 -4.350160e-01 -3.225131e-01 -1.589283e-03 4.102958e-01 2.856989e-01 4.206612e-01 2.436586e-01 2.502016e-01 1.989725e-01 1.209487e-01 -2.617589e-02 1.511351e-01 -1.899057e-02
<VARIANCE> 39
 2.629721e+01 3.198730e+01 1.649414e+01 1.441820e+01 1.838746e+01 2.771697e+01 2.674712e+01 2.654469e+01 2.868846e+01 2.770422e+01 2.870864e+01 3.288800e+01 5.460665e-03 1.028003e+00 9.272440e-01 1.562664e+00 1.235352e+00 1.425987e+00 1.554074e+00 2.930800e+00 2.472311e+00 1.707694e+00 1.909629e+00 2.647465e+00 2.193058e+00 1.694726e-04 1.410162e-01 2.024132e-01 1.601385e-01 2.146729e-01 2.713640e-01 3.751208e-01 4.910099e-01 3.337418e-01 4.314961e-01 3.953925e-01 3.189727e-01 4.089454e-01 3.239638e-05
<GCONST> 7.748200e+01
<MIXTURE> 4 1.020035e-01
<MEAN> 39
 -5.067944e+00 6.737634e+00 9.371032e-01 -1.260059e+01 1.085481e-01 -8.904736e+00 -2.702781e+00 1.054143e+00 -7.282684e-01 -1.452423e-01 -4.478339e-01 1.341789e+00 9.080213e-01 5.353326e-01 -3.293023e+00 1.688200e+00 -1.693952e+00 -8.013122e-01 2.301975e+00 3.821060e-02 1.058227e+00 -2.871962e-01 6.293191e-02 -7.892506e-01 -1.116407e-01 -3.566359e-03 5.035191e-01 -4.315371e-01 -1.865152e-01 1.426709e+00 -1.020898e+00 6.234249e-01 1.912042e-01 -4.393179e-01 6.894839e-02 -1.898813e-01 -2.812344e-02 -3.994692e-02 -1.792667e-03
<VARIANCE> 39
 1.642934e+01 1.998797e+01 2.200206e+01 2.217822e+01 2.693440e+01 3.995569e+01 4.136311e+01 3.037633e+01 2.641108e+01 2.900502e+01 3.928607e+01 5.822560e+01 4.056818e-03 5.981116e-01 7.863530e-01 2.115109e+00 1.110298e+00 1.911740e+00 2.809317e+00 3.776829e+00 1.933597e+00 2.537760e+00 2.505983e+00 3.846911e+00 3.192148e+00 9.758047e-05 1.371705e-01 1.974165e-01 1.963207e-01 2.882952e-01 3.909392e-01 3.759910e-01 5.520003e-01 6.393299e-01 3.554147e-01 3.859149e-01 2.943095e-01 3.090027e-01 6.682355e-06
<GCONST> 7.979986e+01
<MIXTURE> 5 1.481044e-01
<MEAN> 39
 -8.419800e-02 1.194635e+01 6.334514e+00 -1.018158e+01 -2.028923e+00 -4.970661e+00 -6.630933e+00 7.778990e-01 3.312530e+00 -3.250115e+00 1.106339e+00 -1.109741e+00 8.135947e-01 7.866364e-01 -1.027051e+00 1.461180e+00 1.940587e+00 8.401456e-01 2.314676e+00 1.085999e+00 7.228481e-01 4.189040e-01 -1.499880e-02 -8.746751e-01 6.436450e-01 -4.768884e-02 -3.572646e-01 1.426319e-01 -5.015802e-01 1.283929e+00 2.033722e-01 4.268045e-01 9.942614e-02 -3.247996e-02 -3.376999e-01 -9.834886e-02 3.140810e-01 -1.180240e-01 -2.004241e-02
<VARIANCE> 39
 6.755316e+00 3.225150e+01 1.621016e+01 2.162902e+01 1.579918e+01 2.039592e+01 1.819407e+01 2.755328e+01 2.483705e+01 2.513960e+01 2.482373e+01 2.634077e+01 4.146085e-03 1.508854e+00 1.514620e+00 1.519134e+00 1.417534e+00 1.638442e+00 2.342195e+00 1.798180e+00 2.030198e+00 2.423291e+00 2.454014e+00 3.487778e+00 2.664208e+00 3.457346e-04 1.809530e-01 2.963473e-01 2.479188e-01 2.962663e-01 3.762139e-01 3.247525e-01 2.861062e-01 4.103728e-01 3.521951e-01 4.962010e-01 4.280034e-01 3.752499e-01 9.745387e-05
<GCONST> 8.003236e+01
<MIXTURE> 6 2.420834e-01
<MEAN> 39
 4.047871e+00 9.984954e+00 -2.610453e+00 2.388546e-01 -1.069515e+00 -2.442942e+00 -1.991738e+00 1.658645e-02 2.342555e-01 6.594999e-01 7.500696e-01 -9.825945e-01 7.554543e-01 9.438637e-01 -2.569396e-01 3.831837e-01 8.691881e-01 9.801672e-01 6.772659e-01 8.610357e-01 5.577124e-02 3.864299e-01 2.946742e-01 -1.394748e-01 -2.255267e-01 -2.612526e-02 -3.368883e-01 -9.587359e-02 3.499060e-01 2.021383e-01 -5.352913e-03 -1.621013e-01 -1.683472e-01 -1.540863e-01 -1.009143e-01 -2.294417e-01 -6.622636e-02 3.478775e-02 -4.109772e-03
<VARIANCE> 39
 1.124403e+01 4.417273e+01 1.607607e+01 2.062066e+01 2.068932e+01 2.620349e+01 4.475921e+01 2.119985e+01 2.409147e+01 2.808501e+01 2.810822e+01 2.871986e+01 1.017749e-02 9.195012e-01 7.305050e-01 1.353898e+00 1.454615e+00 1.554621e+00 2.023643e+00 2.764663e+00 1.966157e+00 2.373218e+00 1.804134e+00 3.418016e+00 2.647039e+00 4.634008e-04 9.417607e-02 1.267196e-01 2.045875e-01 2.252693e-01 2.752182e-01 3.736487e-01 2.791669e-01 2.858885e-01 3.420378e-01 3.730920e-01 3.222042e-01 3.210068e-01 4.653802e-05
<GCONST> 7.795039e+01
<MIXTURE> 7 1.384923e-01
<MEAN> 39
 -2.379287e-01 8.409130e+00 7.308775e-01 -7.463308e+00 1.439707e+00 -5.628092e+00 -3.094685e+00 -4.991059e-01 -1.276495e+00 -2.092406e+00 -9.743801e-01 -3.472561e+00 8.259382e-01 1.236770e+00 -7.087650e-01 2.300647e+00 4.842058e-01 8.640658e-01 1.583260e+00 -4.605049e-01 -1.116584e-01 -1.357283e-01 -7.094353e-01 1.486094e-01 -2.801905e-01 -3.075436e-02 -1.880405e-03 1.047762e-01 -1.936713e-01 5.491471e-01 -5.191730e-01 2.021480e-01 -2.645160e-02 -1.042658e-01 8.510365e-02 1.539531e-01 -2.924714e-02 4.072688e-01 -4.683758e-04
<VARIANCE> 39
 1.255939e+01 3.502557e+01 1.939181e+01 2.954634e+01 2.640153e+01 2.236100e+01 2.411566e+01 1.796879e+01 2.062947e+01 2.217572e+01 3.654448e+01 3.191488e+01 6.052572e-03 9.093730e-01 1.122134e+00 2.266766e+00 1.751485e+00 3.666306e+00 2.718575e+00 4.313879e+00 2.607778e+00 1.884065e+00 3.506113e+00 3.217864e+00 4.338130e+00 2.762020e-04 7.947846e-02 1.239544e-01 1.578828e-01 3.083591e-01 2.651358e-01 2.676032e-01 4.416943e-01 3.755050e-01 3.035999e-01 4.024258e-01 3.117291e-01 3.921643e-01 4.994665e-05
<GCONST> 8.090182e+01
<STATE> 10
<NUMMIXES> 7
<MIXTURE> 1 8.738552e-02
<MEAN> 39
 2.284000e+00 1.106453e+01 2.647614e+00 -2.941609e+00 -1.742417e+00 -7.820854e+00 -1.810427e+00 1.277033e+00 -3.617055e+00 6.434801e-01 -1.173592e+00 -2.411606e+00 7.904299e-01 -7.648928e-01 -1.512262e+00 2.301251e+00 3.263009e+00 2.225676e+00 3.130634e+00 5.282031e-01 1.261510e+00 -3.029427e-01 4.984808e-01 4.120191e-01 -7.679358e-01 -8.433799e-02 -9.564659e-01 -5.287784e-01 -4.125693e-01 7.052391e-01 2.994162e-01 9.282751e-01 2.981928e-01 2.044822e-01 4.753808e-01 1.462876e-01 4.628281e-01 6.955849e-01 -3.104084e-02
<VARIANCE> 39
 8.658823e+00 1.676065e+01 1.063319e+01 1.533924e+01 1.969343e+01 1.838901e+01 1.868349e+01 2.247351e+01 1.641982e+01 1.930814e+01 2.404730e+01 4.619781e+01 5.544246e-03 1.697177e+00 1.451073e+00 1.360084e+00 1.281625e+00 1.926837e+00 1.396525e+00 2.930123e+00 2.517367e+00 1.946182e+00 3.018283e+00 2.921663e+00 3.579430e+00 7.867590e-04 7.011527e-02 1.119645e-01 2.049915e-01 3.120298e-01 3.324367e-01 2.939470e-01 4.558753e-01 5.147996e-01 3.882496e-01 4.765107e-01 4.654555e-01 3.757074e-01 5.515495e-05
<GCONST> 7.806538e+01
<MIXTURE> 2 9.249285e-02
<MEAN> 39
 6.648402e+00 8.458792e+00 -4.473864e-01 6.873439e-01 -3.292238e+00 -4.498496e+00 -3.687485e+00 -3.496970e-01 3.399222e+00 5.046968e+00 6.174356e+00 5.257601e+00 7.412897e-01 -1.816708e-01 -4.009913e-01 1.206918e+00 9.288696e-01 8.569034e-01 1.090049e+00 1.972761e-01 1.200762e-01 -2.354431e-01 -6.170840e-01 -1.888310e-01 -5.080373e-01 -7.324295e-02 -6.822546e-01 -3.660466e-01 3.331753e-02 1.318839e-01 3.697943e-01 3.615057e-01 3.394722e-01 1.359322e-01 -4.188686e-02 -3.095418e-01 -4.262981e-01 -3.942004e-01 -2.221023e-02
<VARIANCE> 39
 1.192624e+01 6.304755e+01 1.210009e+01 2.679010e+01 2.002641e+01 3.567609e+01 3.043743e+01 2.815289e+01 2.653039e+01 3.187128e+01 3.082704e+01 3.876971e+01 8.562095e-03 9.290282e-01 1.176122e+00 1.887431e+00 2.347996e+00 2.283463e+00 2.565947e+00 1.758015e+00 1.650452e+00 2.570090e+00 4.743604e+00 4.312639e+00 2.822277e+00 1.461035e-03 1.368784e-01 2.847441e-01 3.432499e-01 3.784114e-01 3.271725e-01 3.556203e-01 3.706166e-01 4.162300e-01 4.587502e-01 4.625536e-01 8.282538e-01 4.571060e-01 7.245134e-05
<GCONST> 8.799314e+01
<MIXTURE> 3 1.555001e-01
<MEAN> 39
 5.276143e+00 9.611937e+00 2.476231e+00 2.501230e+00 -1.216434e+00 -4.269884e+00 -5.886348e+00 -7.297921e+00 -4.716174e+00 -2.826868e+00 -3.141591e+00 -3.297397e-01 6.960080e-01 -5.301856e-01 -9.510661e-01 1.703451e+00 1.478664e+00 1.043798e+00 1.208100e+00 1.919488e-01 -6.156382e-02 -5.101441e-02 2.286436e-01 4.976683e-01 4.545844e-02 -7.083365e-02 -7.941645e-01 -5.326952e-01 -2.602729e-01 9.324612e-02 2.686861e-01 5.993682e-01 7.374277e-01 1.106931e+00 6.849877e-01 4.920343e-01 2.986490e-01 2.839472e-01 -2.525609e-02
<VARIANCE> 39
 1.703730e+01 3.306163e+01 1.895222e+01 1.915378e+01 2.030375e+01 2.098304e+01 2.500046e+01 2.046965e+01 2.199693e+01 1.496416e+01 1.670270e+01 2.138457e+01 1.085774e-02 9.959910e-01 1.211759e+00 1.508853e+00 9.304725e-01 2.005887e+00 2.104856e+00 2.665489e+00 2.305455e+00 2.623596e+00 3.355429e+00 2.813609e+00 2.442139e+00 6.082798e-04 3.066795e-01 2.190961e-01 2.132419e-01 2.269865e-01 3.102323e-01 3.180108e-01 4.408882e-01 5.369826e-01 3.554789e-01 4.408837e-01 4.396819e-01 4.453983e-01 7.111143e-05
